a_fortress_of_grey_ice was 0.0031519
a_fortress_of_grey_ice 672 0.4166667
a_fortress_of_grey_ice icewas 1.0000000
a_fortress_of_grey_ice v. 0.1250000
a_fortress_of_grey_ice origin 0.0322581
a_fortress_of_grey_ice publication 0.0526316
a_fortress_of_grey_ice fortress 1.0000000
a_fortress_of_grey_ice came 0.1250000
a_fortress_of_grey_ice 'a 0.1428571
a_fortress_of_grey_ice a 0.0239428
a_fortress_of_grey_ice harback 0.3333333
a_fortress_of_grey_ice 0-7653-0633-6 0.2142857
a_fortress_of_grey_ice grey 1.0000000
a_fortress_of_grey_ice of 0.0111721
a_fortress_of_grey_ice ' 0.0114286
a_fortress_of_grey_ice the 0.0000693
a_fortress_of_grey_ice originates 0.0166205
a_fortress_of_grey_ice 51969173 0.2666667
a_fortress_of_grey_ice though 0.3333333
a_fortress_of_grey_ice j.v 0.2400000
a_fortress_of_grey_ice number 0.0011976
a_fortress_of_grey_ice even 1.0000000
a_fortress_of_grey_ice ice 0.7020202
a_fortress_of_grey_ice large 0.3333333
a_fortress_of_grey_ice published 0.0244300
a_fortress_of_grey_ice gray 1.0000000
a_fortress_of_grey_ice is 0.0000465
a_fortress_of_grey_ice originally 0.2253521
a_fortress_of_grey_ice despite 0.5000000
american 1913 0.0238095
american american 0.0193299
american bungalows 0.3333333
"amsterdamsche abbreviated 0.0056497
"amsterdamsche amsterdamsche 0.5652174
"amsterdamsche is 0.0001396
"amsterdamsche of 0.0004683
"amsterdamsche `` 0.0180921
"amsterdamsche to 0.0006431
kansas_city_metropolitan_area sausage 0.0027027
kansas_city_metropolitan_area area 0.1302682
kansas_city_metropolitan_area metro 0.2500000
kansas_city_metropolitan_area kansas 0.5125000
kansas_city_metropolitan_area usa 0.0150376
kansas_city_metropolitan_area metropolitan 0.8684211
kansas_city_metropolitan_area area.the 1.0000000
kansas_city_metropolitan_area city 0.0232955
governmenttype where 0.0004367
governmenttype the 0.0000347
governmenttype has 0.0037712
governmenttype is 0.0007910
governmenttype which 0.0018975
governmenttype magistrate 0.3142857
governmenttype governed 0.1228070
governmenttype ruled 0.1666667
governmenttype that 0.0070755
governmenttype govern 0.3333333
governmenttype by 0.0021840
governmenttype magistrates 0.3333333
governmenttype arhus 1.0000000
governmenttype governs 0.0588235
governmenttype aarus 0.0312500
sauce, sauce 0.1538462
sauce, hogao 0.0344828
sauce, , 0.0080527
sauce, lengkuas 0.3333333
sauce, soya 0.3333333
reddy" strong 0.0555556
reddy" b.m 0.3548387
reddy" locates 1.0000000
reddy" m 0.1686747
reddy" as 0.0042579
reddy" strongly 0.5000000
reddy" ) 0.0006636
reddy" also 0.0023697
reddy" has 0.0012571
reddy" it 0.0054885
reddy" reddy 1.0000000
reddy" '' 0.0017889
reddy" connected 0.3333333
reddy" m. 0.5000000
reddy" b.m.reddy 0.1250000
reddy" . 0.0003153
reddy" and 0.0024506
california" california 0.0569260
california" been 0.0121212
california" ca 0.0909091
california" , 0.0002351
california" grove 0.3229167
california" ; 0.0089286
australians an 0.0035714
australians published 0.0016287
australians aeinir 0.3333333
australians sequel 0.0512821
australians it 0.0021954
australians aenir 0.0074627
australians has 0.0003143
australians to 0.0025723
australians written 0.0018315
australians austrlian 0.5000000
australians 's 0.0014903
australians australia 0.1600000
australians both 0.0043290
australians by 0.0024570
australians novels 0.1250000
australians novel 0.0630631
australians australians 0.3636364
australians up 0.0357143
australians australian 0.4090909
australians country 0.0018657
australians literature 0.1250000
australians preceded 0.0104712
australians prequel 0.1538462
australians examples 1.0000000
australians of 0.0001338
australians was 0.0002101
australians follow 0.3333333
australians are 0.0004170
deathplace died 0.8820059
deathplace has 0.0081710
deathplace and 0.0095396
deathplace shepherd 0.0666667
deathplace austin.elliot 0.5000000
deathplace death 0.3333333
deathplace passed 0.7777778
deathplace he 0.0651438
deathplace later 0.3461538
deathplace in 0.0002731
deathplace who 0.0011455
deathplace , 0.0009405
deathplace away 0.8055556
deathplace dying 0.6666667
labour_party_(uk) leads 0.0121951
labour_party_(uk) ( 0.0039500
labour_party_(uk) led 0.0092593
labour_party_(uk) party 0.1367521
labour_party_(uk) ) 0.0039814
labour_party_(uk) 's 0.0014903
labour_party_(uk) by 0.0024570
labour_party_(uk) council 0.0535714
labour_party_(uk) run 0.0333333
labour_party_(uk) labour 0.4418605
labour_party_(uk) his 0.0065789
labour_party_(uk) uk 0.0471204
labour_party_(uk) the 0.0007277
labour_party_(uk) u.k. 0.1428571
labour_party_(uk) previous 0.0192308
labour_party_(uk) lead 0.0064516
labour_party_(uk) now 0.0076923
896.0 896 0.2000000
896.0 's 0.0007452
(dollars)" 75 0.2631579
(dollars)" that 0.0023585
(dollars)" dollars 0.5172414
(dollars)" million 0.0444444
(dollars)" '' 0.0017889
(dollars)" ( 0.0013167
(dollars)" ) 0.0013271
(dollars)" 110 0.3125000
aristóteles_sandoval varation 1.0000000
aristóteles_sandoval a 0.0001555
aristóteles_sandoval jalisco 0.0133333
aristóteles_sandoval on 0.0007305
aristóteles_sandoval by 0.0002730
aristóteles_sandoval led 0.0030864
aristóteles_sandoval sandoval 0.7500000
aristóteles_sandoval aristoteles 1.0000000
aristóteles_sandoval aristóteles 1.0000000
aristóteles_sandoval dessert 0.0016420
san_francisco francisco 0.5000000
san_francisco fransico 1.0000000
san_francisco fransisco 0.3333333
san_francisco ) 0.0013271
san_francisco san 0.1699346
san_francisco native 0.0043103
ababa" the 0.0003812
ababa" current 0.0555556
ababa" 140000 0.0909091
23 are 0.0012510
23 ) 0.0006636
23 building 0.0168067
23 .the 0.2500000
23 consisting 0.3333333
23 the 0.0000347
23 floor 0.0420168
23 23 0.5407407
23 there 0.0070755
23 floors 0.2605364
el salvador 0.2325581
el d. 0.0370370
el a. 0.0222222
el its 0.0020222
el metapán 0.1951220
7202 7202 0.6666667
7202 long 0.0039139
7202 third 0.1250000
7202 is 0.0001861
7202 of 0.0000669
7202 the 0.0000347
7202 ft 0.1111111
7202 feet 0.0694444
7202 7,202 0.6666667
runwaysurfacetype of 0.0001338
runwaysurfacetype has 0.0003143
runwaysurfacetype at 0.0006854
runwaysurfacetype concrete 0.2857143
runwaysurfacetype a 0.0003109
runwaysurfacetype asphalt 0.0526316
runwaysurfacetype surface 0.0396040
runwaysurfacetype from 0.0003327
runwaysurfacetype 's 0.0007452
runwaysurfacetype runway 0.0029918
runwaysurfacetype made 0.0099502
craftsman 1913 0.0238095
craftsman have 0.0033113
craftsman bungalows 0.3333333
craftsman of 0.0000669
craftsman the 0.0000347
craftsman and 0.0000875
malaysian_chinese on 0.0007305
malaysian_chinese are 0.0154295
malaysian_chinese home 0.0034014
malaysian_chinese malaysian 0.3800000
malaysian_chinese people 0.0119250
malaysian_chinese and 0.0036758
malaysian_chinese the 0.0021139
malaysian_chinese locale 1.0000000
malaysian_chinese ethnic 0.0008071
malaysian_chinese form 0.0370370
malaysian_chinese : 0.0035149
malaysian_chinese to 0.0006431
malaysian_chinese includes 0.0034247
malaysian_chinese groups 0.0065359
malaysian_chinese both 0.0129870
malaysian_chinese ) 0.0006636
malaysian_chinese ( 0.0013167
malaysian_chinese from 0.0009980
malaysian_chinese chinese 0.2822581
malaysian_chinese for 0.0009158
malaysian_chinese malay 0.1363636
malaysian_chinese has 0.0006285
malaysian_chinese is 0.0000931
countries" nations 0.3333333
countries" countries.the 0.3333333
countries" neighboring 0.1666667
countries" asian 0.0458333
countries" countries 0.2564103
countries" southeastern 0.1355932
countries" other 0.0666667
iraq" in 0.0002731
iraq" anbard 0.2500000
iraq" 's 0.0014903
iraq" iraq 0.2867647
iraq" , 0.0031153
iraq" anbar 0.3032787
iraq" which 0.0009488
max_huiberts owns 0.0645161
max_huiberts with 0.0007358
max_huiberts huiberts 1.0000000
max_huiberts of 0.0000669
max_huiberts club 0.0028571
max_huiberts max 0.9285714
max_huiberts the 0.0000347
sponge_cake come 0.0322581
sponge_cake sponge 0.4722222
sponge_cake with 0.0066225
sponge_cake made 0.0199005
sponge_cake are 0.0020851
sponge_cake cake 0.3150685
sponge_cake ( 0.0006583
sponge_cake from 0.0009980
sponge_cake originate 0.0714286
sponge_cake ) 0.0013271
harry_sahle sahle 1.0000000
harry_sahle ) 0.0006636
harry_sahle harry 0.5714286
harry_sahle both 0.0043290
harry_sahle were 0.0088496
main hessarghatta 0.4931507
main this 0.0045455
main address 0.0181818
main road 0.0110294
main 560090. 0.2790698
main - 0.0422535
main , 0.0005290
blockbuster_(comicscharacter) who 0.0022910
blockbuster_(comicscharacter) , 0.0009405
blockbuster_(comicscharacter) a 0.0006219
blockbuster_(comicscharacter) of 0.0003345
blockbuster_(comicscharacter) lyle 0.4473684
blockbuster_(comicscharacter) book 0.0290557
blockbuster_(comicscharacter) the 0.0020099
blockbuster_(comicscharacter) blockbuster 0.9411765
blockbuster_(comicscharacter) character 0.0969479
blockbuster_(comicscharacter) fox 0.3513514
blockbuster_(comicscharacter) ( 0.0026333
blockbuster_(comicscharacter) infantino 0.2352941
blockbuster_(comicscharacter) comic 0.1471572
blockbuster_(comicscharacter) mark 0.3793103
blockbuster_(comicscharacter) is 0.0002792
blockbuster_(comicscharacter) creator 0.0360360
blockbuster_(comicscharacter) comics 0.2068966
"acf : 0.0017575
"acf or 0.0030030
"acf of 0.0003345
"acf fiorentia 1.0000000
"acf `` 0.0032895
"acf fullname 0.0566038
"acf acf 0.1142857
barny_cakes these 0.0476190
barny_cakes may 0.1428571
barny_cakes carbohydrates 0.0975610
barny_cakes found 0.0218750
barny_cakes fat 0.2921348
barny_cakes can 0.0522523
barny_cakes be 0.0408163
barny_cakes cakes 1.0000000
barny_cakes 1999 0.2857143
barny_cakes barney 1.0000000
barny_cakes 30g 0.2000000
barny_cakes grams 0.1111111
barny_cakes originated 0.0428571
barny_cakes sizes 0.5000000
barny_cakes strawberry 0.3333333
barny_cakes barny 1.0000000
barny_cakes francois 0.0645161
barny_cakes recipe 0.1666667
barny_cakes cake 0.0136986
barny_cakes flavoured 0.5000000
barny_cakes originate 0.1428571
barny_cakes come 0.3064516
barny_cakes cluade 0.5000000
barny_cakes carbohydrate 0.3333333
barny_cakes carbs 0.0454545
barny_cakes strawberries 0.2000000
barny_cakes françois 0.0714286
23rd_street_(manhattan) manhattan 0.0686275
23rd_street_(manhattan) manhatten 0.2000000
23rd_street_(manhattan) on 0.0043828
23rd_street_(manhattan) ( 0.0013167
23rd_street_(manhattan) street 0.0322581
23rd_street_(manhattan) ) 0.0013271
23rd_street_(manhattan) 23rd 0.0909091
23rd_street_(manhattan) at 0.0013708
oostbaan" ooostbaan 1.0000000
oostbaan" amsterdam 0.0054645
oostbaan" airport 0.0007544
oostbaan" schiphol 0.0270270
oostbaan" oostbaan 1.0000000
oostbaan" 'oostbaan 1.0000000
angola,_indiana located 0.0003216
angola,_indiana is 0.0004653
angola,_indiana in 0.0003414
angola,_indiana indiana 0.0955882
angola,_indiana the 0.0001386
angola,_indiana , 0.0008229
angola,_indiana angola 0.0855615
kuala_lumpur 's 0.0022355
kuala_lumpur ) 0.0006636
kuala_lumpur offer 1.0000000
kuala_lumpur kuala 1.0000000
kuala_lumpur lumpur 0.6666667
clerk_(municipal_official) title 0.0091743
clerk_(municipal_official) which 0.0003163
clerk_(municipal_official) a 0.0003109
clerk_(municipal_official) official 0.0306122
clerk_(municipal_official) n.j 0.2000000
clerk_(municipal_official) clerk 0.3750000
clerk_(municipal_official) leads 0.0121951
clerk_(municipal_official) ( 0.0013167
clerk_(municipal_official) municipal 0.1428571
clerk_(municipal_official) ) 0.0013271
clerk_(municipal_official) 's 0.0007452
clerk_(municipal_official) titled 0.0909091
cornell_university unversity 0.3333333
cornell_university the 0.0010050
cornell_university and 0.0025381
cornell_university publisher 0.2222222
cornell_university garrett 0.2195122
cornell_university of 0.0015387
cornell_university , 0.0012344
cornell_university garret 0.4000000
cornell_university grant 0.1395349
cornell_university are 0.0012510
cornell_university science 0.2810458
cornell_university cornell 0.8119658
cornell_university is 0.0021868
cornell_university which 0.0015813
cornell_university universities 0.3282443
cornell_university ( 0.0019750
cornell_university publishes 0.1111111
cornell_university ) 0.0013271
cornell_university grants 0.4000000
cornell_university university 0.0569745
mechanics," 's 0.0022355
mechanics," club 0.0014286
mechanics," . 0.0003153
mechanics," with 0.0007358
mechanics," fullname 0.0188679
mechanics," mechanics 0.3703704
mechanics," 1500. 0.1250000
eberhard_van_der_laan der 0.1702128
eberhard_van_der_laan name 0.0013812
eberhard_van_der_laan van 0.0975610
eberhard_van_der_laan eberhard 1.0000000
eberhard_van_der_laan laan 0.3809524
368.65 alabama 0.0434783
368.65 auburn 0.0285714
368.65 ( 0.0006583
368.65 city 0.0005682
368.65 in 0.0000683
368.65 368.65 1.0000000
harcourt_(publisher) publishers 0.2307692
harcourt_(publisher) ( 0.0019750
harcourt_(publisher) harcourt 0.9166667
harcourt_(publisher) ) 0.0019907
stadio_olimpico stadium 0.0085470
stadio_olimpico there 0.0023585
stadio_olimpico grounds 0.0119760
stadio_olimpico and 0.0003501
stadio_olimpico at 0.0020562
stadio_olimpico olimpico 0.7600000
stadio_olimpico stadio 0.1203704
stadio_olimpico has 0.0003143
stadio_olimpico as 0.0012165
stadio_olimpico its 0.0060667
stadio_olimpico , 0.0000588
stadio_olimpico headquarters 0.0121951
stadio_olimpico play 0.0071942
stadio_olimpico are 0.0004170
japanese_people also 0.0011848
japanese_people group 0.0030769
japanese_people situated 0.0109890
japanese_people main 0.0055172
japanese_people the 0.0003119
japanese_people ethnic 0.0024213
japanese_people is 0.0001861
japanese_people japanese 1.0000000
1929 completed 0.0031746
1929 1929 0.5454545
1929 in 0.0008876
p. p 0.2452830
p. dr.g.p.prabhukumar 0.2000000
p. ; 0.0178571
p. undia 1.0000000
p. its 0.0030334
p. p. 0.4683544
p. dr 0.5227273
p. g.p 0.2105263
p. is 0.0017215
pakistan located 0.0006433
pakistan lahor 0.5000000
pakistan where 0.0056769
pakistan the 0.0000693
pakistan country 0.0009328
pakistan mamnoon 0.2333333
pakistan sharif 0.4047619
pakistan pakistan 0.4056338
pakistan shiraf 0.6666667
pakistan jamali 0.2307692
pakistan , 0.0000588
pakistan zaheer 0.2857143
pakistan ayaz 0.2142857
indiana state 0.0083799
indiana indiana 0.1250000
indiana in 0.0003414
indiana a 0.0004664
indiana city 0.0017045
indiana the 0.0001386
indiana is 0.0001396
indiana located 0.0006433
indiana of 0.0002676
indiana within 0.0093458
cauliflower it 0.0005488
cauliflower can 0.0072072
cauliflower be 0.0047096
cauliflower used 0.0184049
cauliflower cauliflower 0.6666667
cauliflower include 0.0076336
cauliflower on 0.0007305
cauliflower in 0.0001365
cauliflower as 0.0012165
610.0 610 0.4242424
610.0 an 0.0095238
610.0 has 0.0025141
610.0 elevated 0.2307692
610.0 seal 0.3333333
610.0 it 0.0005488
610.0 situated 0.0109890
610.0 at 0.0054832
610.0 m 0.0240964
610.0 with 0.0029433
610.0 610.0 0.5454545
610.0 elevation 0.1818182
610.0 of 0.0008697
610.0 and 0.0001750
610.0 level 0.0873016
610.0 610m 0.5000000
2014–15_football_conference season 0.0150943
2014–15_football_conference conference 0.0069444
2014–15_football_conference football 0.0107914
2014–15_football_conference or 0.0030030
2014–15_football_conference 2014-15 0.0625000
2014–15_football_conference the 0.0002426
architecturalstyle style`is 1.0000000
architecturalstyle styled 0.6666667
architecturalstyle sytle 0.6000000
architecturalstyle houses 0.1666667
architecturalstyle is 0.0004653
architecturalstyle has 0.0072282
architecturalstyle of 0.0019401
architecturalstyle the 0.0020099
architecturalstyle architecture 0.4418605
architecturalstyle and 0.0012253
architecturalstyle architectural 0.7575758
architecturalstyle in 0.0005462
architecturalstyle style 0.6864407
architecturalstyle revival 0.0263158
rosids of 0.0003345
rosids ajobanco 0.2000000
rosids and 0.0009627
rosids rosaceae 0.0135135
rosids rosales/rosids 0.2500000
rosids features 0.1111111
rosids also 0.0035545
rosids part 0.0058881
rosids are 0.0020851
rosids order 0.0747664
rosids from 0.0009980
rosids rosids 0.3673469
bacon_explosion explosion 0.9720280
bacon_explosion originates 0.0387812
bacon_explosion originated 0.0857143
bacon_explosion the 0.0037772
bacon_explosion metropolitan 0.1315789
bacon_explosion home 0.0068027
bacon_explosion sausages 0.3333333
bacon_explosion hails 0.0270270
bacon_explosion you 0.1000000
bacon_explosion sandwich 0.0024814
bacon_explosion can 0.0036036
bacon_explosion country 0.0242537
bacon_explosion capitol 0.0909091
bacon_explosion that 0.0188679
bacon_explosion a 0.0041978
bacon_explosion find 0.0689655
bacon_explosion are 0.0012510
bacon_explosion 'bacon 1.0000000
bacon_explosion 'main 0.5000000
bacon_explosion states.its 0.6250000
bacon_explosion comes 0.1061693
bacon_explosion kansas 0.0250000
bacon_explosion if 0.0909091
bacon_explosion both 0.0216450
bacon_explosion 've 0.5000000
bacon_explosion from 0.0103127
bacon_explosion sausage 0.4540541
bacon_explosion titular 0.3333333
bacon_explosion bacon 0.2051740
bacon_explosion heard 0.1250000
bacon_explosion dish 0.0212389
south_africa they 0.0029155
south_africa cyril 0.4941176
south_africa location 0.0186047
south_africa also 0.0047393
south_africa there 0.0047170
south_africa which 0.0037951
south_africa town 0.1481481
south_africa jacob 0.1521739
south_africa say 1.0000000
south_africa south 0.4970060
south_africa address 0.2181818
south_africa in 0.0008876
south_africa ( 0.0026333
south_africa can 0.0018018
south_africa two 0.0512821
south_africa one 0.0058617
south_africa of 0.0019401
south_africa the 0.0034654
south_africa where 0.0065502
south_africa african 0.0051813
south_africa africa 1.0000000
south_africa , 0.0035855
"bo ) 0.0019907
"bo bibbowski 0.1578947
"bo bo 0.3333333
"bo bibbo 0.2941176
paul_ryan it 0.0016465
paul_ryan origins 0.1250000
paul_ryan alongside 0.0434783
paul_ryan took 0.2000000
paul_ryan 's 0.0029806
paul_ryan place 0.0126582
paul_ryan another 0.0555556
paul_ryan ; 0.0089286
paul_ryan 200 0.0068966
paul_ryan other 0.0333333
paul_ryan politician 0.0666667
paul_ryan lead 0.0322581
paul_ryan leaders 0.0057143
paul_ryan street 0.0040323
paul_ryan ryan 0.7794118
paul_ryan case 1.0000000
paul_ryan paul 0.4636364
paul_ryan current 0.0079365
paul_ryan called 0.0055556
paul_ryan along 0.0104167
paul_ryan political 0.0526316
paul_ryan among 0.0222222
paul_ryan by 0.0027300
paul_ryan with 0.0014717
paul_ryan name 0.0013812
paul_ryan u.s.a. 0.0344828
paul_ryan key 0.0142857
paul_ryan country 0.0018657
paul_ryan a 0.0034204
paul_ryan include 0.0076336
paul_ryan being 0.0273973
paul_ryan are 0.0012510
"03l/21r" is 0.0001396
"03l/21r" where 0.0004367
"03l/21r" - 0.0281690
"03l/21r" 03l/21r 0.3432836
"03l/21r" facility 0.2000000
"03l/21r" it 0.0016465
"03l/21r" also 0.0011848
butty, names 0.2941176
butty, different 0.4583333
butty, : 0.0228471
butty, butty 0.5714286
butty, has 0.0028284
butty, sarnie 0.0169492
butty, including 0.2200000
butty, bacon 0.0428189
sumatra is 0.0001396
sumatra malays 0.2553191
sumatra sumatran 0.6000000
sumatra and 0.0004376
sumatra sumatra 0.6597938
sumatra malaysia.it 0.6666667
sumatra also 0.0059242
sumatra batak 0.3684211
sumatra acehnese 0.1176471
sumatra may 0.1428571
sumatra id 0.0555556
sumatra dish 0.0115044
sumatra sumatra.it 1.0000000
cottage_cheese cheese 0.2823529
cottage_cheese ; 0.0089286
cottage_cheese by 0.0032760
cottage_cheese containing 0.0169492
cottage_cheese sometimes 0.1250000
cottage_cheese include 0.0381679
cottage_cheese includes 0.0034247
cottage_cheese adding 0.5000000
cottage_cheese varied 0.4411765
cottage_cheese cottage 0.2857143
cottage_cheese utilize 0.5000000
cottage_cheese using 0.3500000
cottage_cheese can 0.0360360
cottage_cheese be 0.0251177
cottage_cheese adn 1.0000000
490.9 490.9 1.0000000
490.9 are 0.0004170
490.9 of 0.0000669
"united 1985 0.0555556
"united american 0.0012887
"united united 0.0308668
"united us 0.0226843
"united u.s 0.0162602
"united ( 0.0013167
"united found 0.0007813
"united usa 0.0977444
"united based 0.0063694
"united infantry 0.0378251
"united the 0.0015941
1878 with 0.0007358
1878 published 0.0179153
1878 and 0.0004376
1878 about 0.0344828
1878 in 0.0007510
1878 1878 0.3333333
1878 maths 0.2000000
denzil_antonio managed 0.0405405
denzil_antonio was 0.0008405
denzil_antonio denzil 0.4857143
denzil_antonio ( 0.0013167
denzil_antonio ) 0.0026543
denzil_antonio by 0.0016380
denzil_antonio antonio 0.6666667
haputale haputale 0.2601626
haputale and 0.0002626
haputale countries 0.0085470
haputale also 0.0011848
haputale home 0.0034014
haputale , 0.0013519
haputale found 0.0007813
haputale ( 0.0013167
haputale 's 0.0007452
haputale designed 0.0047847
haputale in 0.0005462
haputale haputalethe 1.0000000
haputale to 0.0006431
pound_sterling also 0.0023697
pound_sterling location 0.0093023
pound_sterling sterling 1.0000000
pound_sterling of 0.0006021
pound_sterling as 0.0012165
pound_sterling whose 0.0067114
pound_sterling pounds 1.0000000
pound_sterling pound 0.7222222
operatingorganisation operating 0.9934211
operatingorganisation josé 0.0370370
operatingorganisation and 0.0021005
operatingorganisation the 0.0010050
operatingorganisation infraero 0.0515464
operatingorganisation authority 0.2624113
operatingorganisation 2215 0.2500000
operatingorganisation force 0.0975610
operatingorganisation , 0.0008229
operatingorganisation operator 0.2857143
operatingorganisation aircaft 0.2000000
operatingorganisation airbas 1.0000000
operatingorganisation is 0.0120039
operatingorganisation it 0.0021954
operatingorganisation controlled 1.0000000
operatingorganisation operate 0.2750000
operatingorganisation run 0.6666667
operatingorganisation operators 0.5000000
operatingorganisation operated 0.7446043
operatingorganisation asad 0.0620438
operatingorganisation an 0.0005952
operatingorganisation four 0.1153846
operatingorganisation by 0.1244881
operatingorganisation auckland 0.1250000
operatingorganisation organisation 0.8389262
operatingorganisation airlines 0.0535714
operatingorganisation organization 0.5000000
operatingorganisation oprated 0.5000000
operatingorganisation operates 0.4608696
kaagbaan" kaagbaan 0.6666667
kaagbaan" 06/24 0.3333333
office office 0.5000000
office astronaut 0.2352941
office and 0.0000875
office had 0.0232558
pakistan_civil_aviation_authority authority 0.2907801
pakistan_civil_aviation_authority pakistan 0.2309859
pakistan_civil_aviation_authority operate 0.0250000
pakistan_civil_aviation_authority the 0.0042624
pakistan_civil_aviation_authority civil 0.7641509
pakistan_civil_aviation_authority governs 0.7058824
pakistan_civil_aviation_authority aviation 0.7964602
pakistan_civil_aviation_authority he 0.0008460
518.0 is 0.0000465
518.0 one 0.0011723
518.0 of 0.0001338
518.0 long 0.0039139
518.0 runways 0.5000000
518.0 518.0 1.0000000
518.0 518. 1.0000000
518.0 feet 0.0138889
518.0 with 0.0007358
518.0 518.0. 1.0000000
518.0 518 1.0000000
alagoas in 0.0002731
alagoas it 0.0005488
alagoas alagoas 1.0000000
frank_borman borman 0.3346614
frank_borman and 0.0008752
frank_borman frank 0.5510204
frank_borman fr.ank 1.0000000
frank_borman alongside 0.3043478
frank_borman all 0.0090909
frank_borman 8 0.0137615
frank_borman was 0.0004203
contributing_property under 0.3274336
contributing_property falling 1.0000000
contributing_property of 0.0008697
contributing_property categorization 1.0000000
contributing_property infantry 0.0023641
contributing_property contributing 0.3281250
contributing_property falls 0.7560976
contributing_property categorisation 1.0000000
contributing_property property 0.9931973
contributing_property category 0.4125000
tenant tenants 0.1400000
tenant current 0.1587302
tenant its 0.0060667
tenant tenant 0.8793103
tenant are 0.0012510
tenant , 0.0014695
tenant youth 0.2959184
tenant a 0.0052861
tenant owned 0.0057803
tenant sky 0.0588235
tenant of 0.0068237
tenant the 0.0029456
tenant where 0.0008734
tenant and 0.0010502
tenant currently 0.0315789
tenant ac 0.0533808
tenant as 0.0030414
tenant by 0.0024570
tenant ) 0.0039814
tenant they 0.0029155
tenant tenanted 0.6250000
tenant which 0.0018975
tenant this 0.0045455
tenant is 0.0041409
tenant has 0.0015713
tenant copenhagen 0.0610329
tenant it 0.0027442
tenant jon 0.0833333
"292" pages 0.1292135
"292" long 0.0117417
"292" 292 0.5227273
"292" 292-page 0.2500000
"292" ' 0.0057143
"292" the 0.0000347
"292" it 0.0010977
"292" length 0.0012870
"292" with 0.0007358
"292" in 0.0002048
"292" , 0.0000588
"292" ( 0.0006583
"292" ) 0.0006636
1931 built 0.0161290
1931 and 0.0001750
1931 1931 0.2857143
1931 1931. 0.2857143
1931 finished 0.3809524
1931 in 0.0020482
sandesh_(confectionery) sandesh 0.6017699
sandesh_(confectionery) are 0.0058382
sandesh_(confectionery) desserts 0.1351351
sandesh_(confectionery) same 0.0394737
sandesh_(confectionery) later 0.0192308
sandesh_(confectionery) dessert 0.0394089
sandesh_(confectionery) sanesh 0.3333333
sandesh_(confectionery) and 0.0003501
sandesh_(confectionery) fun 0.2857143
sandesh_(confectionery) based 0.0063694
sandesh_(confectionery) confectionary 0.6666667
sandesh_(confectionery) another 0.0833333
sandesh_(confectionery) ( 0.0151415
sandesh_(confectionery) confectionery 0.5740741
sandesh_(confectionery) both 0.0303030
sandesh_(confectionery) ) 0.0139350
sandesh_(confectionery) ; 0.0178571
sandesh_(confectionery) nice 0.2727273
sandesh_(confectionery) to 0.0012862
sandesh_(confectionery) as 0.0018248
sandesh_(confectionery) fact 1.0000000
sandesh_(confectionery) alternative 0.0183486
sandesh_(confectionery) an 0.0011905
sandesh_(confectionery) also 0.0023697
sandesh_(confectionery) types 0.1764706
sandesh_(confectionery) ! 0.0540541
be as 0.0006083
be being 0.0136986
be nationwide 0.1271676
be found 0.0257812
be be 0.0439560
be also 0.0106635
be well 0.0281690
be ayem 0.1428571
"haputale, hautale 0.3333333
"haputale, haputale 0.2357724
"haputale, at 0.0041124
"haputale, style'tudor 0.3333333
fall_creek_township,_madison_county,_indiana madison 0.1224490
fall_creek_township,_madison_county,_indiana fall 1.0000000
fall_creek_township,_madison_county,_indiana creek 1.0000000
fall_creek_township,_madison_county,_indiana indiana 0.0441176
fall_creek_township,_madison_county,_indiana county 0.0028490
fall_creek_township,_madison_county,_indiana township 0.0276498
fall_creek_township,_madison_county,_indiana , 0.0007053
john_buscema in 0.0003414
john_buscema ( 0.0019750
john_buscema amercian 1.0000000
john_buscema ) 0.0019907
john_buscema was 0.0002101
john_buscema john 0.0609756
john_buscema buscema 1.0000000
john_buscema buschema 0.3333333
john_buscema to 0.0006431
john_buscema comics 0.1724138
john_buscema the 0.0000693
john_buscema considered 0.0454545
john_buscema genre 0.3750000
john_buscema be 0.0015699
"0-439-17684-0" production 1.0000000
"0-439-17684-0" 0-439-17684-0. 1.0000000
"0-439-17684-0" '' 0.0071556
"0-439-17684-0" `` 0.0049342
"0-439-17684-0" number 0.0215569
"0-439-17684-0" 45644811 0.0357143
"0-439-17684-0" respectively 0.0555556
"0-439-17684-0" a 0.0001555
"0-439-17684-0" 0-439-17684-0 0.6052632
"0-439-17684-0" of 0.0006021
sri hautale 0.3333333
sri haputhale 0.3333333
sri haputale 0.2520325
sri , 0.0023511
"asilomar blvd 0.0625000
"asilomar at 0.0075394
"asilomar on 0.0094960
"asilomar blvd. 0.1875000
"asilomar asilomar 0.0488889
"asilomar location 0.0062016
pork , 0.0054664
pork one 0.0011723
pork that 0.0023585
pork pork 0.6000000
1962" m.s 0.2272727
1962" . 0.0003547
1962" afit 0.3184080
1962" 1962 0.0955882
1962" which 0.0003163
1962" in 0.0008876
1962" mater 0.1263158
1962" alma 0.0377358
1962" going 0.2000000
1962" attending 0.1666667
1962" m.s. 0.2222222
1962" , 0.0019985
1962" before 0.0156250
bundelkhand also 0.0023697
bundelkhand whose 0.0033557
bundelkhand location 0.0093023
bundelkhand bundelhand 0.5000000
bundelkhand and 0.0006126
bundelkhand bundelkhand 0.6486486
bundelkhand of 0.0015387
lufthavn lufthavan 0.5000000
lufthavn lufthavn 0.4235294
lufthavn lufthave 0.5000000
lufthavn lufthaven 0.5000000
sc_wiener_neustadt neustadt 0.5813953
sc_wiener_neustadt wiener 0.6578947
sc_wiener_neustadt but 0.0077519
sc_wiener_neustadt with 0.0080942
sc_wiener_neustadt affiliated 0.0242826
sc_wiener_neustadt sc 0.6578947
sc_wiener_neustadt club 0.0171429
sc_wiener_neustadt both 0.0086580
lockheed_c-130_hercules ) 0.0006636
lockheed_c-130_hercules u.s.a.f 1.0000000
lockheed_c-130_hercules have 0.0033113
lockheed_c-130_hercules transport 0.0735294
lockheed_c-130_hercules as 0.0030414
lockheed_c-130_hercules serves 0.0019305
lockheed_c-130_hercules including 0.0200000
lockheed_c-130_hercules ac- 1.0000000
lockheed_c-130_hercules is 0.0000465
lockheed_c-130_hercules hercules 0.3250000
lockheed_c-130_hercules many 0.0076923
lockheed_c-130_hercules , 0.0005290
lockheed_c-130_hercules planes 0.2000000
lockheed_c-130_hercules - 0.0140845
lockheed_c-130_hercules plane 0.3000000
lockheed_c-130_hercules entity 1.0000000
lockheed_c-130_hercules : 0.0035149
lockheed_c-130_hercules lockheed 0.0972222
lockheed_c-130_hercules aircraft 0.0621118
lockheed_c-130_hercules part 0.0009814
lockheed_c-130_hercules known 0.0026738
lockheed_c-130_hercules c-130 0.7647059
lockheed_c-130_hercules a 0.0001555
jesús_casillas_romero romero 0.7500000
jesús_casillas_romero jesús 1.0000000
jesús_casillas_romero jalisco 0.0133333
jesús_casillas_romero jesus 1.0000000
jesús_casillas_romero of 0.0000669
jesús_casillas_romero name 0.0027624
jesús_casillas_romero the 0.0000347
jesús_casillas_romero in 0.0000683
jesús_casillas_romero leader 0.0004305
jesús_casillas_romero 's 0.0007452
jesús_casillas_romero casillas 1.0000000
"42 meters 0.0046083
"42 between 0.0588235
"42 1961-1964 0.1666667
"42 42 0.2888889
"42 metres 0.0123839
"42 built 0.0161290
"42 ) 0.0006636
"42 tall 0.3333333
gene_colan nolan 0.5000000
gene_colan ben 0.0277778
gene_colan colan 1.0000000
gene_colan gene 0.7441860
2014.0 meters 0.0092166
2014.0 which 0.0006325
2014.0 is 0.0003257
2014.0 it 0.0010977
2014.0 at 0.0020562
2014.0 2014.0. 0.3333333
2014.0 schuphol 0.2857143
2014.0 3.3528 0.2500000
2014.0 schipol 0.0322581
2014.0 's 0.0007452
2014.0 that 0.0070755
2014.0 long 0.0078278
2014.0 below 0.0416667
2014.0 2014 0.0132450
2014.0 2,014 1.0000000
2014.0 , 0.0000588
2014.0 2014.0 0.5384615
seminary_ridge part 0.0009814
seminary_ridge getysburg 1.0000000
seminary_ridge the 0.0001386
seminary_ridge at 0.0143934
seminary_ridge seminary 0.4852941
seminary_ridge categorized 0.0204082
seminary_ridge ; 0.0089286
seminary_ridge gettysburg 0.0109890
seminary_ridge ridge 0.0661323
seminary_ridge 's 0.0014903
"ascqag" ascqag 1.0000000
"ascqag" of 0.0001338
"ascqag" '' 0.0035778
"ascqag" `` 0.0032895
"ascqag" a 0.0003109
"1/19" runs 0.2500000
"1/19" people 0.0017036
"1/19" 1,533 0.0416667
"1/19" it 0.0005488
"1/19" and 0.0002626
"1/19" called 0.0027778
"1/19" 1/19/ 1.0000000
"1/19" with 0.0007358
"1/19" length 0.0025740
"1/19" its 0.0020222
"1/19" s 0.0200000
"1/19" ; 0.0089286
"1/19" 1/19 0.5555556
1121.0 metres 0.0030960
1121.0 with 0.0014717
1121.0 total 0.0112360
1121.0 1121m 0.2000000
1121.0 is 0.0001861
1121.0 of 0.0011373
1121.0 long 0.0058708
1121.0 meters 0.0046083
1121.0 1,121 1.0000000
1121.0 1121.0 1.0000000
san_francisco_bay_area in 0.0001365
san_francisco_bay_area francisco 0.0416667
san_francisco_bay_area bay 0.1176471
san_francisco_bay_area area 0.0076628
san_francisco_bay_area the 0.0000693
san_francisco_bay_area california 0.0037951
san_francisco_bay_area san 0.0130719
amsterdam laan 0.3333333
amsterdam amsterdam 0.2295082
amsterdam amsterdam-noord 0.2857143
amsterdam in 0.0001365
amsterdam noord 0.3333333
amsterdam amsterdam-centrum 0.3157895
amsterdam called 0.0027778
amsterdam whose 0.0033557
amsterdam found 0.0015625
amsterdam , 0.0007641
amsterdam based 0.0063694
amsterdam can 0.0036036
amsterdam be 0.0031397
amsterdam of 0.0020739
amsterdam the 0.0002079
amsterdam city 0.0005682
fruits, fruit 0.0657895
fruits, sour 0.1940299
fruits, chopped 0.0487805
fruits, fruits 0.5918367
fruits, mexico.the 0.3333333
fruits, , 0.0015282
auburn,_alabama in 0.0001365
auburn,_alabama is 0.0002792
auburn,_alabama located 0.0003216
auburn,_alabama , 0.0009405
auburn,_alabama the 0.0003119
auburn,_alabama alabama 0.6521739
auburn,_alabama auburn 0.4000000
1983 in 0.0011606
1983 1983 0.1744186
1983 1983. 0.2857143
meat minced 0.3274336
meat indonesian 0.0175439
meat meat 0.4800000
meat an 0.0005952
luanda_province luanda 0.3500000
luanda_province the 0.0002079
luanda_province angolo 0.3333333
luanda_province province 0.1830065
luanda_province can 0.0018018
luanda_province be 0.0015699
roger_stern and 0.0003501
roger_stern stern 0.2400000
roger_stern roger 0.3050847
amarillo,_texas , 0.0001763
amarillo,_texas the 0.0000347
amarillo,_texas city 0.0005682
amarillo,_texas is 0.0001396
amarillo,_texas texas 0.0046083
amarillo,_texas amarillo 0.8461538
amarillo,_texas a 0.0001555
fc_dallas well 0.0281690
fc_dallas fc 0.0189076
fc_dallas currently 0.0105263
fc_dallas dallas 0.0227273
fc_dallas playing 0.0952381
fc_dallas cd 0.1428571
fc_dallas connected 0.3333333
fc_dallas alianza 0.0333333
fc_dallas as 0.0024331
fc_dallas to 0.0006431
fc_dallas allianza 0.2000000
fc_dallas , 0.0002939
fc_dallas f.c. 0.0909091
abilene,_texas ) 0.0006636
abilene,_texas usually 0.1111111
abilene,_texas ( 0.0026333
abilene,_texas in 0.0012289
abilene,_texas by 0.0043680
abilene,_texas have 0.0033113
abilene,_texas abilene 0.4444444
abilene,_texas we 0.1666667
abilene,_texas located 0.0009649
abilene,_texas is 0.0007444
abilene,_texas taylor 0.3925234
abilene,_texas services 0.0714286
abilene,_texas , 0.0038794
abilene,_texas texas 0.0589862
abilene,_texas served 0.0243161
abilene,_texas albilene 1.0000000
abilene,_texas 1121m 0.6000000
rice rice 0.4710145
rice with 0.0007358
rice made 0.0024876
rice leaf 0.0092593
rice riced 0.5000000
rice 's 0.0007452
rice , 0.0002939
torino_f.c. while 0.0312500
torino_f.c. f.c 0.0721154
torino_f.c. both 0.0086580
torino_f.c. club 0.0114286
torino_f.c. attends 1.0000000
torino_f.c. managing 0.0500000
torino_f.c. torino 0.6097561
torino_f.c. owns 0.1935484
torino_f.c. fc 0.0210084
torino_f.c. torini 0.2500000
torino_f.c. at 0.0020562
torino_f.c. . 0.0008276
1099.0 sea 0.0030030
1099.0 metres 0.0015480
1099.0 1099 1.0000000
1099.0 level 0.0031746
1099.0 elevated 0.0192308
1099.0 1099.0 1.0000000
baku" it 0.0175631
baku" called 0.0055556
baku" commemorated 0.2500000
baku" is 0.0002326
baku" baku 0.1570048
50 count 0.0666667
50 boasts 0.1250000
50 50 0.5116279
50 there 0.0023585
50 floors 0.0689655
50 floor 0.0336134
50 a 0.0007774
50 at 0.0006854
50 of 0.0004014
50 total 0.0112360
50 are 0.0004170
air kheria 0.3333333
air the 0.0000693
bananaman which 0.0003163
bananaman broadcast 0.2602740
bananaman banaman 1.0000000
bananaman aired 0.1538462
bananaman jill 0.2173913
bananaman it 0.0115258
bananaman bill 0.0307692
bananaman oddie 0.0681818
bananaman graeme 0.4102564
bananaman bananaman 0.6725979
bananaman broadcasted 0.3181818
bananaman tv 0.0384615
bananaman bright 0.3333333
bananaman tim 0.0566038
bananaman bbc 0.0071942
bananaman the 0.0005198
bananaman garden 0.2105263
bananaman brooke-taylor 0.1212121
bananaman and 0.0065640
bananaman was 0.0075646
bananaman brooke 0.1000000
bananaman show 0.2500000
stephen_dilts head 0.0384615
stephen_dilts dilts 1.0000000
stephen_dilts name 0.0013812
stephen_dilts stephen 0.3333333
floorarea measures 0.1111111
floorarea 120770.0 0.1428571
floorarea its 0.0010111
floorarea 30843.8 0.0192308
floorarea total 0.1011236
floorarea 111484 0.1500000
floorarea and 0.0046385
floorarea of 0.0025421
floorarea 39599 0.3333333
floorarea 140,000-square 0.5000000
floorarea 3746.66 0.2857143
floorarea a 0.0108831
floorarea area 0.3333333
floorarea covering 0.4444444
floorarea with 0.0029433
floorarea cover 0.3333333
floorarea has 0.0122564
floorarea is 0.0000931
floorarea 140000 0.0909091
floorarea floor 0.6386555
water, water 0.2197802
spata in 0.0001365
spata , 0.0008817
spata actually 0.1250000
spata and 0.0007877
spata spata 0.4137931
spata but 0.0077519
spata sparta 0.2500000
spata serving 0.0512821
470 678 0.3333333
470 470 0.3333333
470 and 0.0002626
470 , 0.0002939
peter_laird peter 0.0280374
peter_laird of 0.0000669
peter_laird is 0.0000465
peter_laird creator 0.0090090
peter_laird kevin 0.3750000
peter_laird laird 0.5000000
jamie_chung stars 0.0416667
jamie_chung he 0.0008460
jamie_chung star 0.2000000
jamie_chung included 0.0263158
jamie_chung jamie 1.0000000
jamie_chung where 0.0004367
jamie_chung that 0.0023585
jamie_chung features 0.1111111
jamie_chung chung 1.0000000
1080 the 0.0001386
1080 1080 0.3750000
1080 number 0.0071856
1080 is 0.0001861
1080 eissn 1.0000000
standard_chinese there 0.0094340
standard_chinese standard 1.0000000
standard_chinese this 0.0136364
standard_chinese spoke 1.0000000
standard_chinese uses 0.0107527
standard_chinese is 0.0001396
standard_chinese regional 0.0032051
standard_chinese speaking 0.0136986
standard_chinese chinese 0.1895161
standard_chinese in 0.0009558
standard_chinese spoken 0.0173647
standard_chinese country 0.0009328
standard_chinese nation 0.0188679
standard_chinese ' 0.0057143
standard_chinese their 0.0036900
standard_chinese language 0.0110664
standard_chinese make 0.0714286
standard_chinese chinese-speaking 0.5000000
standard_chinese origin 0.0322581
standard_chinese eaten 0.0312500
standard_chinese dishes 0.0714286
sri_lankan_rupee use 0.0454545
sri_lankan_rupee for 0.0009158
sri_lankan_rupee lankan 1.0000000
sri_lankan_rupee they 0.0029155
sri_lankan_rupee ski 0.7500000
sri_lankan_rupee official 0.0102041
sri_lankan_rupee used 0.0061350
sri_lankan_rupee location 0.0015504
sri_lankan_rupee uses 0.0215054
sri_lankan_rupee rupee 0.2988506
sri_lankan_rupee has 0.0006285
sri_lankan_rupee `` 0.0016447
sri_lankan_rupee as 0.0036496
sri_lankan_rupee its 0.0020222
sri_lankan_rupee sri 0.0459016
italians italy.italians 0.3333333
italians ) 0.0013271
italians inhabit 0.1250000
italians main 0.0013793
italians this 0.0090909
italians full 0.0054945
italians inabitated 0.5000000
italians reside 0.1428571
italians ethnic 0.0008071
italians ' 0.0057143
italians italians 0.3081761
italians lead 0.0064516
italians home 0.0136054
italians by 0.0038220
italians to 0.0025723
italians populated 0.1250000
italians called 0.0194444
italians group 0.0015385
italians come 0.0322581
italians there 0.0117925
italians which 0.0022138
italians italians.the 0.2500000
italians given 0.0192308
italians who 0.0091638
italians like 0.0370370
italians highly 1.0000000
italians live 0.1386139
italians italian 0.0736842
italians name 0.0013812
italians grounds 0.0059880
italians citizens 0.3333333
italians inhabited 0.2592593
italians that 0.0070755
italians country 0.0093284
2988 2988 0.6666667
2988 elevated 0.0384615
2988 of 0.0000669
2988 airpor 0.5000000
2988 level 0.0063492
2988 in 0.0000683
2988 ) 0.0006636
2988 ( 0.0006583
"asser asser 0.0742857
"asser are 0.0012510
"asser on 0.0058437
jan_duursema jan 0.7241379
jan_duursema duursema 0.5945946
jan_duursema , 0.0002351
jan_duursema creators 0.0200000
jan_duursema are 0.0004170
jan_duursema who 0.0022910
u.s._route_83 u.s. 0.0597826
u.s._route_83 83. 0.3333333
u.s._route_83 us 0.0018904
u.s._route_83 route 1.0000000
u.s._route_83 on 0.0051132
u.s._route_83 83 0.5882353
u.s._route_83 at 0.0034270
"january jan. 0.5000000
"january st. 0.0035461
"january at 0.0006854
"january constructionof 0.5000000
"january january 0.0208333
541, has 0.0003143
541, 458 0.5000000
541, for 0.0009158
541, codes 0.0833333
wall north 0.0069686
wall quay 0.3658537
wall at 0.0047978
ampara_hospital ampara 0.6787149
ampara_hospital province 0.0130719
ampara_hospital hospital 0.6138614
ampara_hospital `` 0.0016447
ampara_hospital bed 0.2500000
ampara_hospital hopsital 0.2666667
ampara_hospital has 0.0006285
ampara_hospital eastern 0.0958904
ampara_hospital located 0.0067546
ampara_hospital is 0.0033034
ampara_hospital situated 0.0989011
ampara_hospital the 0.0003812
ampara_hospital lanka 0.0131004
ampara_hospital easter 0.2500000
greenlandic_language in 0.0002731
greenlandic_language denmark 0.0044709
greenlandic_language greenlandic 0.7826087
greenlandic_language the 0.0008317
greenlandic_language ? 0.1428571
greenlandic_language one 0.0082063
greenlandic_language language 0.0090543
greenlandic_language of 0.0007359
greenlandic_language spoken 0.0061287
greenlandic_language languages 0.0701754
greenlandic_language that 0.0023585
greenlandic_language official 0.0102041
greenlandic_language country 0.0046642
aek_athens_f.c. 69618 0.5862069
aek_athens_f.c. f.c. 0.1818182
aek_athens_f.c. aek 1.0000000
aek_athens_f.c. superleague 0.0481928
aek_athens_f.c. f.c 0.1490385
aek_athens_f.c. with 0.0007358
aek_athens_f.c. marousi 0.1538462
aek_athens_f.c. gus 0.1481481
aek_athens_f.c. athens 0.2500000
aek_athens_f.c. fc 0.0840336
NULL the 0.0000693
NULL . 0.9094778
NULL , 0.0007053
NULL of 0.0080947
NULL in 0.0004096
NULL is 0.0025590
derbyshire_dales derbyshire 0.5853659
derbyshire_dales region 0.0444444
derbyshire_dales hails 0.0270270
derbyshire_dales bakewell 0.0084986
derbyshire_dales patrick 0.5375000
derbyshire_dales deryshire 0.2500000
derbyshire_dales dales 0.9637681
derbyshire_dales the 0.0040545
derbyshire_dales shortbread 0.2500000
derbyshire_dales made 0.0024876
derbyshire_dales in 0.0002731
derbyshire_dales area 0.0268199
athens_international_airport sparta 0.5000000
athens_international_airport athens 0.1927711
athens_international_airport international 0.0467938
athens_international_airport the 0.0007624
athens_international_airport spata 0.5862069
athens_international_airport 4000.0 0.3157895
athens_international_airport airport 0.0203697
public mobility 0.1584158
public operators 0.0714286
public public 0.0440771
public are 0.0004170
malay be 0.0015699
malay can 0.0018018
malay malay 0.1818182
charlie s. 0.1785714
1.8 18.00g 1.0000000
1.8 g 0.0598291
1.8 of 0.0009366
1.8 , 0.0009405
1.8 protein 0.6400000
1.8 1.8 0.5555556
1.8 1.8g 1.0000000
campus, dalpatbhai 0.5000000
campus, lalbhai 0.0270270
campus, , 0.0006466
campus, cept 0.2972973
campus, campus 0.0909091
campus, dalpathbhai 0.5000000
campus, near 0.3928571
barack_obama member 0.0017153
barack_obama facts 0.3750000
barack_obama obama 0.4900222
barack_obama previous 0.2115385
barack_obama former 0.0357143
barack_obama about 0.1034483
barack_obama usa 0.0075188
barack_obama once 0.1224490
barack_obama ; 0.0089286
barack_obama have 0.0066225
barack_obama d.c.. 0.5000000
barack_obama other 0.0666667
barack_obama president 0.1446655
barack_obama this 0.0090909
barack_obama barack 1.0000000
barack_obama who 0.0045819
barack_obama was 0.0056735
barack_obama : 0.0035149
barack_obama title 0.0183486
barack_obama country 0.0037313
barack_obama previously 0.0192308
barack_obama leads 0.0609756
barack_obama barak 0.5000000
barack_obama leader 0.0008610
barack_obama as 0.0036496
barack_obama to 0.0019293
barack_obama has 0.0018856
barack_obama random 0.0454545
barack_obama under 0.0088496
barack_obama there 0.0023585
barack_obama some 0.0769231
barack_obama they 0.0029155
"demarce book 0.0072639
"demarce books 0.0400000
"demarce followed 0.0069444
"demarce preceding 1.0000000
"demarce gazette 0.0312500
"demarce gazettes 0.0281690
"demarce also 0.0023697
"demarce grantville 0.0091324
"demarce iii 0.0125000
"demarce grantiville 0.1250000
"demarce these 0.0476190
"demarce then 0.0222222
"demarce short 0.2235294
524.0 level 0.0047619
524.0 sea 0.0045045
524.0 at 0.0006854
524.0 situated 0.0109890
524.0 524.0 1.0000000
524.0 524m 1.0000000
anwar_zaheer_jamali jamali 0.7692308
anwar_zaheer_jamali named 0.0080000
anwar_zaheer_jamali anwar 0.9090909
anwar_zaheer_jamali zaheer 0.7142857
anwar_zaheer_jamali to 0.0006431
anwar_zaheer_jamali whree 0.5000000
anwar_zaheer_jamali one 0.0023447
anwar_zaheer_jamali leaders 0.0019048
anwar_zaheer_jamali home 0.0034014
affiliations sadly 0.2000000
affiliations affiliated 0.1456954
affiliations to 0.0295820
affiliations affiliation 0.1000000
affiliations ( 0.0052666
affiliations graduate 0.0163934
affiliations an 0.0035714
affiliations austin 0.1000000
affiliations which 0.0183428
affiliations is 0.0036756
affiliations 'em 0.3333333
affiliations , 0.0001176
affiliations linked 0.5000000
affiliations were 0.0088496
affiliations that 0.0070755
affiliations system 0.0462963
affiliations part 0.0117763
affiliations affiliate 0.3571429
affiliations the 0.0014901
affiliations school 0.0028510
affiliations system.. 1.0000000
18 as 0.0018248
18 its 0.0020222
18 18 0.1666667
18 -3.3528 0.0625000
18 number 0.0095808
18 5th 0.3571429
18 known 0.0080214
18 the 0.0000347
18 fifth 0.2500000
18 is 0.0002792
firstpublicationyear maths 0.2000000
firstpublicationyear 1878 0.2424242
firstpublicationyear , 0.0007641
firstpublicationyear first 0.1923077
firstpublicationyear was 0.0048329
birmingham, , 0.0031153
birmingham, birmingham 0.1250000
birmingham, colmore 0.0602410
white_rice and 0.0002626
white_rice with 0.0014717
white_rice as 0.0006083
white_rice its 0.0010111
white_rice rice 0.0869565
white_rice ingredients 0.0011198
white_rice containing 0.0169492
white_rice white 0.0381356
haputhale, monastery 0.0540541
haputhale, haputhale 0.3333333
haputhale, adisham 0.0370370
haputhale, , 0.0009992
elizabeth_ii elizabeth 0.6875000
elizabeth_ii state 0.0111732
elizabeth_ii ii 0.4437086
elizabeth_ii as 0.0006083
elizabeth_ii with 0.0007358
elizabeth_ii queen 0.3333333
elizabeth_ii its 0.0010111
elizabeth_ii include 0.0076336
elizabeth_ii head 0.1538462
elizabeth_ii are 0.0012510
elizabeth_ii were 0.0044248
elizabeth_ii leaders 0.0076190
elizabeth_ii reigns 1.0000000
elizabeth_ii along 0.0104167
elizabeth_ii 11 0.0021322
vermicelli, noodle 0.0238095
vermicelli, vermicelli 0.3650794
reyes los 0.3207547
reyes reyes 0.3119266
related to 0.0012862
related that 0.0023585
related a 0.0001555
related pakora 0.0800000
related related 0.3750000
related snack 1.0000000
related is 0.0003257
related similar 0.2000000
new or 0.0060060
new , 0.0010580
new new 0.0138282
new paris 0.0846154
new either 0.1290323
backup his 0.0263158
backup alfred 0.3129771
backup pilot 0.0414258
backup , 0.0002351
backup a 0.0031095
backup up 0.5000000
backup of 0.0000669
backup whilst 0.2000000
backup the 0.0003812
backup anders.joe 0.2000000
backup aldren 0.5000000
backup as 0.0158151
backup back 0.5833333
backup become 0.0526316
backup ) 0.0033179
backup backup 0.4819277
backup an 0.0011905
backup for 0.0036630
backup along 0.0520833
2014–15_football_league_(greece) season 0.0150943
2014–15_football_league_(greece) part 0.0009814
2014–15_football_league_(greece) greece 0.0057307
2014–15_football_league_(greece) league 0.0097087
2014–15_football_league_(greece) 2014-2015 0.1600000
2014–15_football_league_(greece) football 0.0107914
2014–15_football_league_(greece) ) 0.0013271
2014–15_football_league_(greece) ( 0.0013167
dimitra has 0.0003143
dimitra capacity 0.1250000
dimitra efxeinoupoli 0.0508475
dimitra and 0.0002626
dimitra a 0.0001555
dimitra 1500. 0.1250000
dimitra team 0.0096154
deportiva" now 0.0038462
deportiva" known 0.0026738
deportiva" - 0.0281690
deportiva" asociación 0.4615385
deportiva" '' 0.0107335
deportiva" plays 0.0092025
deportiva" are 0.0008340
deportiva" managed 0.0202703
deportiva" they 0.0058309
deportiva" it 0.0005488
deportiva" deportiva 0.2777778
deportiva" to 0.0006431
deportiva" as 0.0006083
deportiva" ( 0.0006583
deportiva" asociacion 0.3888889
deportiva" abbreviated 0.0056497
deportiva" by 0.0008190
lengkuas, oyster 0.6046512
lengkuas, lengkuas 0.3333333
foundationplace that 0.0047170
foundationplace company 0.0408163
foundationplace which 0.0098039
foundationplace based 0.0063694
foundationplace in 0.0047109
foundationplace ( 0.0059250
foundationplace , 0.0008229
foundationplace was 0.0100862
foundationplace mondelez 0.0243902
foundationplace founded 0.5772358
tacoma,_washington washington 0.0058997
tacoma,_washington the 0.0000347
tacoma,_washington pierce 0.1000000
tacoma,_washington is 0.0000465
tacoma,_washington tacoma 1.0000000
tacoma,_washington , 0.0001763
tacoma,_washington in 0.0001365
tacoma,_washington county 0.0004748
hal_light_combat_helicopter combat 0.6296296
hal_light_combat_helicopter india 0.0040000
hal_light_combat_helicopter aircraft-capable 1.0000000
hal_light_combat_helicopter aircraft 0.0186335
hal_light_combat_helicopter helicopers 1.0000000
hal_light_combat_helicopter well 0.0140845
hal_light_combat_helicopter helicopter 0.6279070
hal_light_combat_helicopter used 0.0184049
hal_light_combat_helicopter known 0.0133690
hal_light_combat_helicopter a 0.0006219
hal_light_combat_helicopter ) 0.0013271
hal_light_combat_helicopter 's 0.0022355
hal_light_combat_helicopter ( 0.0006583
hal_light_combat_helicopter by 0.0002730
hal_light_combat_helicopter as 0.0036496
hal_light_combat_helicopter `` 0.0016447
hal_light_combat_helicopter helicopters 0.5000000
hal_light_combat_helicopter is 0.0000465
hal_light_combat_helicopter there 0.0023585
hal_light_combat_helicopter an 0.0017857
hal_light_combat_helicopter light 0.6071429
dead_mans_plack the 0.0014208
dead_mans_plack ' 0.0057143
dead_mans_plack can 0.0018018
dead_mans_plack be 0.0015699
dead_mans_plack stone 0.3157895
dead_mans_plack structure 0.2000000
dead_mans_plack rock 0.3095238
dead_mans_plack mans 0.9090909
dead_mans_plack dad 1.0000000
dead_mans_plack formation 0.4500000
dead_mans_plack is 0.0001861
dead_mans_plack dead 0.9292929
dead_mans_plack anglia 0.1627907
dead_mans_plack man 0.9090909
dead_mans_plack 's 0.0484352
dead_mans_plack plack 0.4464286
family the 0.0036386
family and 0.0008752
family family 0.2320000
family of 0.0050174
family part 0.0363101
family which 0.0003163
family a 0.0006219
family retrovirus 0.2500000
family ( 0.0013167
family member 0.0171527
family solanaceae 0.0312500
family laurales 0.0333333
s.s.d._potenza_calcio played 0.0169972
s.s.d._potenza_calcio for 0.0064103
s.s.d._potenza_calcio potenza 1.0000000
s.s.d._potenza_calcio . 0.0001970
s.s.d._potenza_calcio the 0.0000693
s.s.d._potenza_calcio winners 0.5000000
s.s.d._potenza_calcio once 0.0204082
s.s.d._potenza_calcio previously 0.0192308
s.s.d._potenza_calcio club 0.0071429
s.s.d._potenza_calcio s.s.d 0.1363636
s.s.d._potenza_calcio calcio 0.0304183
s.s.d._potenza_calcio , 0.0000588
s.s.d._potenza_calcio ssd 0.7142857
cityserved wisconsin 0.0903226
cityserved meters 0.0046083
cityserved meteres 0.5000000
cityserved it 0.0098793
cityserved 2,744 0.2000000
cityserved 3310m 0.2000000
cityserved lahore 0.0225564
cityserved 877.0 0.1428571
cityserved , 0.0007641
cityserved served 0.1550152
cityserved tourist 0.2608696
cityserved and 0.0051637
cityserved lunada 0.2500000
cityserved the 0.0147278
cityserved 1,533 0.1666667
cityserved 896 0.2000000
cityserved city 0.2460227
cityserved of 0.0057533
cityserved 973m 0.2000000
cityserved lake 0.1546392
cityserved whree 0.5000000
cityserved serves 0.9613900
cityserved regional 0.0192308
cityserved by 0.0060060
cityserved which 0.0199241
cityserved serving 0.5641026
cityserved ny 0.1000000
cityserved ew 0.5000000
cityserved cities 0.2666667
cityserved metres 0.0015480
cityserved n.y 0.1428571
cityserved services 0.2857143
cityserved 1219.0. 0.1666667
cityserved aktielskab 0.2500000
cityserved airport 0.0079215
cityserved capitalod 1.0000000
cityserved 1.773 0.2000000
cityserved servers 1.0000000
cityserved 1533m 0.2000000
cityserved dubbed 0.3333333
stockport_county_f.c. own 0.0476190
stockport_county_f.c. fc 0.0273109
stockport_county_f.c. played 0.0141643
stockport_county_f.c. country 0.0009328
stockport_county_f.c. stockport 1.0000000
stockport_county_f.c. football 0.0143885
stockport_county_f.c. f.c 0.0673077
stockport_county_f.c. whose 0.0100671
stockport_county_f.c. was 0.0014709
stockport_county_f.c. at 0.0041124
stockport_county_f.c. for 0.0054945
stockport_county_f.c. club 0.0100000
stockport_county_f.c. previously 0.0192308
stockport_county_f.c. 's 0.0007452
stockport_county_f.c. county 0.0123457
stockport_county_f.c. once 0.1020408
stockport_county_f.c. organization 0.0192308
– road 0.0992647
– , 0.0001176
– 560090 0.3524590
banyumasan_people ethnic 0.0169492
banyumasan_people their 0.0036900
banyumasan_people island 0.1666667
banyumasan_people one 0.0023447
banyumasan_people live 0.0099010
banyumasan_people people 0.0528109
banyumasan_people but 0.0077519
banyumasan_people banyumasan 0.5925926
banyumasan_people can 0.0036036
banyumasan_people are 0.0108424
banyumasan_people its 0.0010111
banyumasan_people has 0.0003143
banyumasan_people group 0.0292308
banyumasan_people foods 0.1111111
banyumasan_people eat 0.0714286
banyumasan_people an 0.0119048
banyumasan_people penjey 1.0000000
banyumasan_people groups 0.0108932
banyumasan_people as 0.0012165
shredded , 0.0024687
shredded condensed 0.1152074
ethiopian_birr while 0.0312500
ethiopian_birr in 0.0000683
ethiopian_birr birr 1.0000000
ethiopian_birr used 0.0061350
ethiopian_birr ethiopian 0.6666667
ethiopian_birr is 0.0000465
ethiopian_birr of 0.0001338
ethiopian_birr ethiopia 0.0247934
2014–15_serie_a 2014-15 0.2500000
2014–15_serie_a in 0.0004779
2014–15_serie_a 2014-2015 0.0800000
2014–15_serie_a league 0.0032362
2014–15_serie_a serie 0.0867580
2014–15_serie_a 2014–15 0.0555556
2014–15_serie_a season 0.0490566
2014–15_serie_a a 0.0029540
2014–15_serie_a were 0.0044248
2014–15_serie_a part 0.0009814
angola country 0.0009328
angola angola.the 0.5000000
angola angola 0.1764706
angola angolo 0.3333333
angola luanda 0.0125000
angola located 0.0003216
turkey İzmir 0.5116279
turkey atatürk 0.0919540
turkey within 0.0093458
turkey it 0.0005488
turkey izmir 0.5425532
turkey turkey 0.8417266
turkey davutoglu 0.1967213
turkey ahmet_davutoglu 0.2500000
turkey in 0.0010924
turkey 's 0.0305514
turkey lira 0.0175439
turkey that 0.0117925
turkey country 0.0242537
turkey turkeys 0.2500000
turkey can 0.0144144
turkey be 0.0125589
turkey ahmet 0.3672566
turkey but 0.0232558
turkey where 0.0209607
turkey the 0.0014901
turkey and 0.0007002
turkey izmur 1.0000000
turkey istanbul 0.2936508
turkey ataturk 0.1801802
turkey whose 0.0100671
turkey izmi 1.0000000
turkey ahmet_davutoğlu 0.5714286
turkey found 0.0062500
turkey , 0.0099924
turkey ankara 0.3620690
turkey davutoğlu 0.2187500
"atiset" is 0.0001861
"atiset" the 0.0003465
"atiset" ' 0.0057143
"atiset" a 0.0003109
"atiset" atiset 0.5238095
"atiset" 'atiset 1.0000000
"atiset" '' 0.0071556
"atiset" `` 0.0065789
ice meringue 0.2407407
2008" 2008. 0.4444444
2008" 2008 1.0000000
2008" december 0.1351351
2008" date 0.0285714
2008" at 0.0013708
2008" 's 0.0007452
2008" and 0.0012253
enaire the 0.0005198
enaire madrid–barajasairport 0.2000000
enaire company 0.0272109
enaire that 0.0023585
enaire lies 0.0441176
enaire are 0.0012510
enaire who 0.0022910
enaire airport 0.0015089
enaire enaire 0.8267717
enaire is 0.0002326
enaire called 0.0027778
enaire airpor 0.5000000
enaire operators 0.1428571
enaire for 0.0064103
enaire an 0.0005952
enaire which 0.0034788
enaire alcobenda 0.2000000
enaire this 0.0045455
enaire organization 0.0576923
enaire operates 0.0434783
baku, also 0.0011848
baku, shuvalan 0.2307692
baku, , 0.0006466
hays_county,_texas , 0.0002351
hays_county,_texas hays 0.6363636
hays_county,_texas in 0.0002731
hays_county,_texas county 0.0033238
hays_county,_texas texas 0.0064516
luciano_spalletti luciano 1.0000000
luciano_spalletti a.s. 0.0216450
luciano_spalletti spalletti 1.0000000
luciano_spalletti roma 0.0420561
luciano_spalletti manages 0.0409357
luciano_spalletti s 0.0200000
luciano_spalletti who 0.0011455
luciano_spalletti spallett 1.0000000
luciano_spalletti as 0.0018248
square per 0.1904762
square kilometer 0.3076923
square n.m 0.1666667
square kilometre 0.5000000
robert_gates the 0.0001386
robert_gates is 0.0003257
robert_gates chancellor 0.0775194
robert_gates miler 0.2500000
robert_gates gates 0.3428571
robert_gates served 0.0060790
robert_gates robert 0.1043478
robert_gates ) 0.0006636
robert_gates once 0.0204082
robert_gates to 0.0006431
robert_gates as 0.0024331
united_states_air_force usaf 0.2758621
united_states_air_force ac130 0.1666667
united_states_air_force bombed 0.1666667
united_states_air_force united 0.0752643
united_states_air_force battles 0.4080000
united_states_air_force eagle 0.2380952
united_states_air_force , 0.0003527
united_states_air_force carry 0.3333333
united_states_air_force force 0.5670732
united_states_air_force f15 0.5000000
united_states_air_force douglas 0.0333333
united_states_air_force states 0.0723335
united_states_air_force and 0.0010502
united_states_air_force bombing 0.1875000
united_states_air_force the 0.0164605
united_states_air_force of 0.0000669
united_states_air_force aircraft 0.0062112
united_states_air_force operation 0.1132075
united_states_air_force carriers 0.3559322
united_states_air_force ) 0.0013271
united_states_air_force us 0.0056711
united_states_air_force invasion 0.0156250
united_states_air_force airbases 0.5000000
united_states_air_force asad 0.0656934
united_states_air_force fighter.the 0.5000000
united_states_air_force for 0.0274725
united_states_air_force mcdonnell 0.0571429
united_states_air_force usaf.the 1.0000000
united_states_air_force is 0.0004187
united_states_air_force deploys 1.0000000
united_states_air_force weapons 0.5000000
united_states_air_force grenada 0.4732143
united_states_air_force enduring 0.1562500
united_states_air_force carried 0.3333333
united_states_air_force who 0.0034364
united_states_air_force general 0.0312500
united_states_air_force are 0.0012510
united_states_air_force dynamics 0.9459459
united_states_air_force c-130 0.1176471
united_states_air_force base 0.0597015
united_states_air_force fighters 0.4000000
united_states_air_force f-15 0.3658537
united_states_air_force where 0.0004367
united_states_air_force lockheed 0.4375000
united_states_air_force operates 0.0260870
united_states_air_force invaded 0.5000000
united_states_air_force air 0.5749235
united_states_air_force battled 0.2500000
united_states_air_force korean 0.2952381
united_states_air_force hercules 0.3750000
"dessert" classic 1.0000000
"dessert" made 0.0049751
"dessert" dessert 0.0541872
"dessert" temperature 0.3333333
"dessert" , 0.0007641
"dessert" a 0.0037313
"dessert" that 0.0235849
"dessert" cold 0.0915033
"dessert" classed 0.2352941
"dessert" classified 0.2000000
"dessert" with 0.0007358
"dessert" as 0.0024331
"dessert" pudding 0.0404412
"dessert" contains 0.0110193
"dessert" few 1.0000000
"dessert" blackwell 0.1666667
"dessert" is 0.0005583
"dessert" any 0.2500000
"dessert" it 0.0005488
the_grantville_gazette itself 0.0666667
the_grantville_gazette ii 0.0066225
the_grantville_gazette gazette 0.0937500
the_grantville_gazette turn 0.0909091
the_grantville_gazette the 0.0002426
the_grantville_gazette grantville 0.0319635
the_grantville_gazette preceded 0.0104712
fried_egg of 0.0001338
fried_egg one 0.0011723
fried_egg paisa 0.0059347
fried_egg bandeja 0.0131579
fried_egg a 0.0003109
fried_egg typical 0.0333333
fried_egg includes 0.0068493
fried_egg egg 0.0256410
fried_egg ingredients 0.0011198
fried_egg fried 0.0176471
buxton tim 0.0188679
buxton birthplace 0.0606061
buxton brooke-tayler 1.0000000
buxton brooke-taylor 0.0303030
buxton the 0.0000693
buxton of 0.0001338
buxton is 0.0000931
buxton buxton 1.0000000
orange_county,_california california 0.0075901
orange_county,_california orange 0.4000000
orange_county,_california ca 0.0909091
orange_county,_california , 0.0002351
orange_county,_california county 0.0028490
orange_county,_california in 0.0002048
orange_county,_california a 0.0001555
orange_county,_california city 0.0005682
orange_county,_california is 0.0000465
"04/22 04/22 0.5714286
"04/22 amsterdam 0.0054645
pietro_canonica way 0.0050761
pietro_canonica pietro 0.1926606
pietro_canonica canonnica 1.0000000
pietro_canonica canonica 0.3625731
oyster lengkuas 0.3333333
oyster sauce 0.0476190
chili_pepper ingredients 0.0022396
chili_pepper its 0.0010111
chili_pepper are 0.0004170
chili_pepper chili 0.2352941
chili_pepper well 0.0140845
chili_pepper chilli 0.0370370
chili_pepper basil 0.0555556
chili_pepper : 0.0017575
chili_pepper as 0.0024331
chili_pepper serves 0.0019305
chili_pepper pepper 0.4545455
chili_pepper ( 0.0006583
chili_pepper ) 0.0006636
chili_pepper an 0.0011905
chili_pepper some 0.0769231
chili_pepper important 0.2222222
chili_pepper oregano 0.0322581
"atw" 280m 0.2000000
"atw" , 0.0000588
"atw" id 0.1111111
"atw" `` 0.0016447
"atw" '' 0.0017889
"atw" and 0.0000875
"atw" atw 0.7500000
"atw" for 0.0009158
"atw" a.s.l 0.0555556
architecture an 0.0005952
architecture based 0.0382166
architecture they 0.0029155
architecture architecture 0.1860465
architecture the 0.0007277
architecture of 0.0002007
architecture one 0.0011723
architecture 1913. 0.2727273
architecture architectural 0.0454545
architecture its 0.0020222
architecture 1913 0.1547619
architecture designed 0.0095694
architecture style 0.0254237
architecture on 0.0043828
architecture are 0.0008340
hungar." hungar.. 1.0000000
hungar." '' 0.0161002
hungar." hungar 0.5333333
hungar." hungar. 0.5000000
hungar." focuses 0.3333333
hungar." on 0.0007305
hungar." known 0.0053476
hungar." . 0.0018128
hungar." and 0.0009627
hungar." : 0.0052724
hungar." of 0.0001338
hungar." `` 0.0098684
hungar." with 0.0007358
hungar." as 0.0024331
hungar." hunger 0.5000000
hungar." ) 0.0039814
hungar." also 0.0011848
hungar." math 0.0091743
hungar." math.hungar 0.4000000
leadername it 0.0010977
leadername vice 0.2857143
leadername is 0.1193877
leadername jacob 0.0217391
leadername led` 0.5000000
leadername francis 0.3260870
leadername charles 0.1428571
leadername 's 0.0611028
leadername led 0.6018519
leadername lead 0.4806452
leadername narendra 0.2307692
leadername ruled 0.3333333
leadername leaders 0.3885714
leadername the 0.0383269
leadername of 0.0569976
leadername ryan 0.0147059
leadername speaker 1.0000000
leadername which 0.0398482
leadername kalla.. 0.5000000
leadername has 0.0006285
leadername francois 0.2903226
leadername queen 0.4666667
leadername leads 0.3536585
leadername by 0.0480480
leadername carles 0.0800000
leadername joe 0.0254237
leadername a 0.0360697
leadername where 0.2995633
leadername løkke 0.1282051
leadername one 0.0128957
leadername rasmussen 0.0101010
leadername t.s 0.1600000
leadername also 0.0047393
leadername puidgemont 0.1428571
leadername haider 0.2142857
leadername criona 0.3333333
leadername america`s 1.0000000
leadername cyril 0.0352941
leadername teshome 0.0434783
leadername and/or 0.4000000
leadername joko 0.1393939
leadername manuel 0.2244898
leadername head 0.0769231
leadername governor 0.2500000
leadername politician 0.0333333
leadername malatu 0.2500000
leadername headed 0.2500000
leadername and 0.0654647
leadername emperor 0.1428571
leadername gerard 0.0140845
leadername leadership 0.5000000
leadername ii 0.0264901
leadername whose 0.2416107
leadername , 0.0002351
leadername obama 0.0709534
leadername mahmood 0.1428571
leadername johannis 0.3333333
leadername governed 0.1052632
leadername stephen 0.0666667
leadername akihito 0.3333333
leadername manual 0.1282051
leadername ammann 0.1666667
leadername leader 0.7223418
leadername two 0.0128205
leadername country 0.0447761
leadername dhálaigh 0.2666667
leadername justice 0.1250000
leadername laura 0.1764706
tirstrup call 0.2000000
tirstrup airoprt 1.0000000
tirstrup airort 1.0000000
tirstrup there 0.0047170
tirstrup an 0.0005952
tirstrup aarhus 0.0006050
tirstrup location 0.0418605
tirstrup tirstrup 0.8669951
tirstrup aiport 0.0909091
tirstrup ; 0.0089286
tirstrup serves 0.0019305
tirstrup to 0.0006431
tirstrup city 0.0005682
tirstrup the 0.0012129
tirstrup of 0.0012711
tirstrup home 0.0034014
tirstrup tristrup 0.6000000
tirstrup tirstruo 0.6666667
asphalt in 0.0000683
asphalt surface 0.0693069
asphalt 722.0 0.2500000
asphalt of 0.0010035
asphalt 877m 0.2000000
asphalt has 0.0025141
asphalt one 0.0011723
asphalt where 0.0013100
asphalt first 0.0064103
asphalt a 0.0001555
asphalt asphalt 0.4605263
asphalt 497m 0.2000000
asphalt an 0.0053571
its mols 0.1507937
its 's 0.0074516
its kuttittattoor 0.1250000
its carrol 0.3027027
its west 0.2411765
its county 0.0056980
its to 0.0469453
its mahe 0.2035928
its telengana 0.2500000
its southwest 0.2474227
its it 0.0098793
its south 0.0029940
its has 0.0065996
its is 0.0019076
its which 0.0047438
its 'technical 0.0250000
its location 0.0496124
its south-east 0.6666667
its its 0.0414560
its southeast.. 0.5000000
its east 0.0927152
its and 0.0037633
its the 0.0038119
its cumberland 0.3260073
its southeast 0.3600000
its of 0.0027428
its carroll 0.3030303
its northeast 0.2905983
its north 0.0452962
its northwest 0.1428571
bethesda,_maryland that 0.0023585
bethesda,_maryland company 0.0136054
bethesda,_maryland now 0.0076923
bethesda,_maryland based 0.0191083
bethesda,_maryland well 0.0140845
bethesda,_maryland are 0.0004170
bethesda,_maryland headquarters 0.0121951
bethesda,_maryland being 0.0136986
bethesda,_maryland , 0.0005290
bethesda,_maryland corporation 0.3333333
bethesda,_maryland whose 0.0033557
bethesda,_maryland its 0.0010111
bethesda,_maryland bethesda 0.5294118
bethesda,_maryland has 0.0003143
bethesda,_maryland at 0.0006854
bethesda,_maryland office 0.0294118
bethesda,_maryland maryland 0.0488889
bethesda,_maryland bethseda 1.0000000
bethesda,_maryland as 0.0006083
lazio its 0.0040445
lazio region 0.0190476
lazio ingredients 0.0022396
lazio of 0.0008028
lazio regions 0.0526316
lazio lazio 0.4500000
lazio one 0.0035170
philippine_english english 0.0474090
philippine_english where 0.0074236
philippine_english country 0.0074627
philippine_english but 0.0387597
philippine_english philippine 0.3804348
philippine_english spoken 0.0091931
philippine_english phillipines 0.1250000
philippine_english batchoy 0.0099502
philippine_english is 0.0011632
philippine_english it 0.0016465
philippine_english philippine-english 1.0000000
philippine_english this 0.0136364
philippine_english also 0.0035545
philippine_english ) 0.0019907
philippine_english ( 0.0019750
philippine_english speaking 0.0273973
kv_mechelen player 0.0789474
kv_mechelen the 0.0007277
kv_mechelen currently 0.0315789
kv_mechelen represented 0.3703704
kv_mechelen town 0.0092593
kv_mechelen has 0.0040855
kv_mechelen part 0.0058881
kv_mechelen kv 0.3417722
kv_mechelen mechelen 1.0000000
kv_mechelen previously 0.0192308
kv_mechelen club 0.0200000
kv_mechelen football 0.0143885
turkmenbashi_international_airport turkmenbashi 0.5555556
turkmenbashi_international_airport which 0.0006325
turkmenbashi_international_airport at 0.0020562
turkmenbashi_international_airport is 0.0003257
turkmenbashi_international_airport of 0.0001338
turkmenbashi_international_airport 900 0.1428571
turkmenbashi_international_airport has 0.0006285
turkmenbashi_international_airport turkmenbasi 1.0000000
turkmenbashi_international_airport international 0.0112652
turkmenbashi_international_airport airport 0.0060355
alan_b._miller_hall alan 0.1496520
alan_b._miller_hall b 0.3149171
alan_b._miller_hall hall 0.3782178
alan_b._miller_hall miller 0.9395973
alan_b._miller_hall b. 0.9278351
alan_b._miller_hall millar 1.0000000
alan_b._miller_hall 2009-10-02 0.2000000
alan_b._miller_hall stern 0.2533333
alan_b._miller_hall the 0.0015594
alan_b._miller_hall mason 0.2918919
alan_b._miller_hall 2009 0.0615385
valencian_community valencian 0.6489362
valencian_community spanish 0.0052083
valencian_community community 0.4462810
valencian_community the 0.0035347
valencian_community valencia 0.1428571
valencian_community of 0.0029435
valencian_community ximo 0.2307692
valencian_community region 0.0412698
mondelez_international organization 0.0192308
mondelez_international international 0.0190641
mondelez_international cake 0.0136986
mondelez_international n 0.1428571
mondelez_international produced 0.0222222
mondelez_international invented 0.0833333
mondelez_international which 0.0009488
mondelez_international creator 0.0270270
mondelez_international called 0.0027778
mondelez_international mondelez 0.9756098
mondelez_international its 0.0010111
mondelez_international dessert 0.0032841
mondelez_international national 0.0017637
mondelez_international who 0.0011455
mondelez_international were 0.0486726
mondelez_international now 0.0076923
mondelez_international based 0.0063694
mondelez_international but 0.0077519
mondelez_international nation 0.0188679
mondelez_international type 0.0100000
gerstman, h. 0.2500000
gerstman, , 0.0002939
opelika,_alabama is 0.0000465
opelika,_alabama county 0.0004748
opelika,_alabama , 0.0000588
opelika,_alabama the 0.0000347
opelika,_alabama lee 0.0204082
opelika,_alabama alabama 0.0434783
opelika,_alabama opelika 0.5000000
patrick_mcloughlin where 0.0091703
patrick_mcloughlin one 0.0046893
patrick_mcloughlin patrick 0.4625000
patrick_mcloughlin hails 0.0540541
patrick_mcloughlin this 0.0136364
patrick_mcloughlin a 0.0010883
patrick_mcloughlin leaders 0.0019048
patrick_mcloughlin led 0.0092593
patrick_mcloughlin leader 0.0030133
patrick_mcloughlin mcloughlin 1.0000000
bionico shredded 0.0277778
bionico preparation 0.1818182
bionico mexico.it 0.5000000
bionico it 0.0010977
bionico is 0.0053041
bionico bionico 0.8803612
bionico guadalajara 0.1666667
bionico , 0.0004702
bionico aureoles 0.0270270
bionico made 0.0099502
bionico condensed 0.1382488
bionico the 0.0019753
bionico food 0.0036765
bionico bianco 0.5000000
bionico raisins 0.1190476
bionico in 0.0004096
bionico honey 0.3750000
bionico bionicoa 0.3333333
bionico dish 0.0230088
bionico called 0.0083333
bionico comes 0.0014347
bionico using 0.3250000
bionico sandash 0.5000000
bionico found 0.0007813
bionico dessert 0.0426929
bionico mexico 0.0830946
bionico desert 0.3333333
bionico where 0.0008734
bionico cottage 0.2500000
bionico mexican 0.1290323
bionico jalisco 0.3866667
bionico a 0.0124378
status not 0.1428571
status but 0.0310078
status now 0.3769231
status . 0.0000394
status deceased 0.3125000
status and 0.0044635
status louis 0.0917431
status retired 0.1281407
status , 0.0093458
status 1923. 0.0526316
status 1966. 0.1666667
status who 0.0297824
status alan 0.0232019
status passed 0.0277778
status retiree 0.3333333
status 1966.. 0.2500000
status since 0.4500000
status comanded 0.1666667
status already 0.5000000
status 9th 0.5000000
status is 0.0059089
status has 0.0141420
status before 0.2187500
status technical 0.2795031
status as 0.0006083
status 17/10/1933 0.1428571
status h 0.3333333
status brithish 0.3333333
status he 0.0617597
status late 0.2500000
status 28,1966. 0.3333333
1818.0 1818 0.3571429
1818.0 long 0.0039139
1818.0 1818.0 1.0000000
1818.0 the 0.0003119
1818.0 m 0.0120482
1818.0 its 0.0030334
1818.0 1818. 1.0000000
1818.0 length 0.0012870
gula melaka 0.5306122
gula , 0.0015282
gula gula 0.4583333
operator mr 0.2500000
operator by 0.0294840
operator ( 0.0019750
operator 's 0.0216095
operator operated 0.2535971
operator run 0.1333333
operator for 0.0100733
operator nasa 0.1775701
operator which 0.0129665
operator program 0.1621622
operator is 0.0002326
operator sportpark 0.2133333
operator along 0.0520833
operator organized 0.4000000
operator was 0.0119773
operator crewed 0.1428571
operator david 0.1381215
operator worked 0.1702128
operator , 0.0001176
operator chosen 0.0967742
operator that 0.0047170
operator mission 0.1603774
operator institude 0.2500000
operator 11 0.0021322
operator nasa-operated 0.1250000
operator the 0.0002079
operator borman 0.0039841
margrethe_ii_of_denmark led 0.0030864
margrethe_ii_of_denmark by 0.0019110
margrethe_ii_of_denmark here 0.0454545
margrethe_ii_of_denmark property 0.0068027
margrethe_ii_of_denmark queen 0.2000000
margrethe_ii_of_denmark danish 0.0869565
margrethe_ii_of_denmark led` 0.5000000
margrethe_ii_of_denmark if 0.0909091
margrethe_ii_of_denmark id 0.0555556
margrethe_ii_of_denmark margrethe 1.0000000
margrethe_ii_of_denmark denmark 0.0372578
margrethe_ii_of_denmark ii 0.2582781
margrethe_ii_of_denmark ll 1.0000000
margrethe_ii_of_denmark currently 0.0105263
margrethe_ii_of_denmark name 0.0013812
margrethe_ii_of_denmark of 0.0021408
margrethe_ii_of_denmark lead 0.0064516
margrethe_ii_of_denmark margethe 1.0000000
margrethe_ii_of_denmark served 0.0015198
mario_botta mario 0.8988764
mario_botta university 0.0013098
mario_botta and 0.0003501
mario_botta called 0.0138889
mario_botta it 0.0027442
mario_botta the 0.0000347
mario_botta botta 0.6639344
mario_botta botto 1.0000000
mario_botta but 0.0155039
mario_botta academy 0.0526316
round_rock,_texas texas 0.0018433
round_rock,_texas the 0.0000693
round_rock,_texas round 0.4000000
round_rock,_texas rock 0.0238095
round_rock,_texas is 0.0000931
robert_a._heinlein heinlein 0.9245283
robert_a._heinlein wrote 0.0491803
robert_a._heinlein heinlin 0.5000000
robert_a._heinlein as 0.0006083
robert_a._heinlein robert 0.4521739
robert_a._heinlein he 0.0093063
robert_a._heinlein a 0.0043532
robert_a._heinlein a. 0.5777778
robert_a._heinlein and 0.0000875
robert_a._heinlein heinlen 0.5000000
country traditional 0.0131579
country and 0.0244180
country the 0.0005545
country originated 0.1714286
country originates 0.0249307
country of 0.0041477
country perth 0.0294118
country , 0.1635220
country it 0.0148189
country within 0.1214953
country located 0.0238019
country is 0.0519704
country from 0.4055223
country here 0.0454545
country NULL 0.7029703
country where 0.0004367
country . 0.0588768
country boasts 0.5000000
country australians 0.2272727
country country 0.0083955
country townshio 0.5000000
country a 0.0054415
country find 0.0689655
country found 0.2484375
country comes 0.0516499
country aeinir 0.3333333
country which 0.0303605
country ( 0.0052666
country famous 0.1000000
country originate 0.2142857
country in 0.1607838
country with 0.0007358
kilometre) n.m 0.1666667
kilometre) density 0.1500000
kilometre) ) 0.0019907
kilometre) kilometer 0.3076923
kilometre) per 0.0317460
kilometre) sq 0.3448276
kilometre) kilometre 0.5000000
kilometre) km 0.2000000
beef_kway_teow served 0.0091185
beef_kway_teow a 0.0038868
beef_kway_teow palm 0.5200000
beef_kway_teow beef 0.5451613
beef_kway_teow popular 0.0144404
beef_kway_teow food 0.0073529
beef_kway_teow is 0.0007444
beef_kway_teow tony 0.1862745
beef_kway_teow dish 0.0159292
beef_kway_teow kwat 1.0000000
beef_kway_teow kway 0.8614865
beef_kway_teow teow 0.8274112
beef_kway_teow beefkway 1.0000000
beef_kway_teow sesame 0.4646465
udinese_calcio udinese 1.0000000
udinese_calcio with 0.0022075
udinese_calcio he 0.0008460
udinese_calcio previously 0.0192308
udinese_calcio manages 0.0058480
udinese_calcio calcio 0.0418251
udinese_calcio now 0.0038462
udinese_calcio been 0.0181818
udinese_calcio for 0.0009158
udinese_calcio has 0.0009428
udinese_calcio associated 0.1578947
a_epsth_2nd_group 2nd 0.3333333
a_epsth_2nd_group a 0.0003109
a_epsth_2nd_group league 0.0064725
a_epsth_2nd_group plays 0.0030675
a_epsth_2nd_group group 0.0076923
a_epsth_2nd_group , 0.0001763
a_epsth_2nd_group epsth 0.5000000
alderney alderney 0.2545455
alderney 's 0.0014903
alderney by 0.0062790
alderney this 0.0090909
alderney is 0.0000931
alderney whose 0.0033557
alderney , 0.0004115
alderney 877.0 0.1428571
alderney on 0.0007305
alderney airport 0.0011316
alderney laderney 1.0000000
alderney served 0.0349544
alderney aldernay 1.0000000
alderney name 0.0027624
alderney island 0.1666667
alderney of 0.0008028
"1907-07-11" ( 0.0013167
"1907-07-11" ) 0.0039814
"1907-07-11" 11th 0.0666667
"1907-07-11" 1907-07-11 0.4857143
"1907-07-11" est 1.0000000
"1907-07-11" july 0.2032520
"1907-07-11" 1907. 1.0000000
"1907-07-11" , 0.0017634
"1907-07-11" 1907 0.6376812
"1907-07-11" 1907and 0.3333333
"1907-07-11" on 0.0343316
"1907-07-11" made 0.0024876
"1907-07-11" and 0.0000875
"1907-07-11" founding 0.5000000
"1907-07-11" 11 0.0554371
"1907-07-11" can 0.0018018
"1907-07-11" parks 0.1428571
sausage of 0.0000669
sausage explosion 0.0244755
sausage and 0.0031507
sausage a 0.0012438
sausage sausages 0.1666667
sausage hails 0.0810811
sausage but 0.0077519
sausage originating 0.0500000
sausage american 0.0025773
sausage ingredients 0.0011198
sausage is 0.0002792
sausage has 0.0009428
sausage ingredient 0.0026954
sausage it 0.0065862
sausage uses 0.0107527
sausage among 0.0444444
sausage also 0.0047393
sausage in 0.0003414
sausage contains 0.0110193
sausage 's 0.0007452
sausage bacon 0.0231936
sausage titular 0.3333333
sausage sausage 0.1945946
sausage includes 0.0239726
sausage with 0.0007358
cornell graduate 0.1803279
akita_prefecture japan 0.0054348
akita_prefecture akita 0.1457399
akita_prefecture art 0.0074627
akita_prefecture akiita 0.4000000
akita_prefecture prefecture 0.7142857
akita_prefecture prefecture. 0.5000000
akita_prefecture part 0.0019627
addis_ababa them 0.3333333
addis_ababa abiba 1.0000000
addis_ababa ethopia 0.1666667
addis_ababa addis 0.4257812
addis_ababa ababa 0.3826715
addis_ababa both 0.0043290
addis_ababa mulatu 0.1000000
addis_ababa amharic-speaking 0.2500000
addis_ababa situated 0.0109890
addis_ababa the 0.0002426
addis_ababa city 0.0005682
punjab,_pakistan punjab 0.6904762
punjab,_pakistan sharif.punjab 0.5000000
punjab,_pakistan pakistan 0.2197183
punjab,_pakistan is 0.0000931
punjab,_pakistan within 0.0093458
punjab,_pakistan the 0.0001386
punjab,_pakistan and 0.0000875
punjab,_pakistan malik 0.5714286
punjab,_pakistan in 0.0010241
punjab,_pakistan found 0.0015625
punjab,_pakistan , 0.0045847
punjab,_pakistan shehbaz 0.4166667
polish_academy_of_sciences warsaw 0.4074074
polish_academy_of_sciences polish 0.4655172
polish_academy_of_sciences poland 0.3043478
polish_academy_of_sciences sciences 0.0311721
polish_academy_of_sciences publisher 0.0707071
polish_academy_of_sciences the 0.0010396
polish_academy_of_sciences of 0.0023415
polish_academy_of_sciences academy 0.3421053
oyster_sauce uses 0.0107527
oyster_sauce sauce 0.0183150
oyster_sauce well.the 0.3333333
oyster_sauce oyster 0.3953488
oyster_sauce as 0.0006083
oyster_sauce includes 0.0068493
oyster_sauce used 0.0061350
the_grantville_gazettes sequel 0.1666667
the_grantville_gazettes gazettes 0.5070423
the_grantville_gazettes follows 0.3333333
the_grantville_gazettes is 0.0000465
the_grantville_gazettes and 0.0001750
the_grantville_gazettes the 0.0020446
the_grantville_gazettes to 0.0083601
the_grantville_gazettes including 0.0600000
the_grantville_gazettes grantville 0.1598174
the_grantville_gazettes ) 0.0019907
the_grantville_gazettes ( 0.0019750
randall_county,_texas located 0.0009649
randall_county,_texas county 0.0023742
randall_county,_texas is 0.0002326
randall_county,_texas in 0.0003414
randall_county,_texas within 0.0093458
randall_county,_texas randall 1.0000000
randall_county,_texas texas 0.0027650
riverside_art_museum buildings 0.0392157
riverside_art_museum 's 0.0014903
riverside_art_museum art 0.1119403
riverside_art_museum most 0.0769231
riverside_art_museum musuem 0.6000000
riverside_art_museum is 0.0000931
riverside_art_museum her 1.0000000
riverside_art_museum one 0.0046893
riverside_art_museum significant 0.0833333
riverside_art_museum riverside 0.7692308
riverside_art_museum at 0.0006854
riverside_art_museum that 0.0023585
riverside_art_museum museum 0.1369048
city universities 0.0763359
city situated 0.0989011
city it 0.0005488
city vincent–st 0.1000000
city located 0.0701190
city is 0.0146094
city grants 0.2000000
city belgaum 0.3372781
city balgalore 0.1428571
city acharya 0.0030166
city banglaore 0.2000000
city and 0.0001750
city city 0.1136364
city the 0.0040545
city of 0.0107707
city its 0.0010111
city mendrisio 0.1895223
city dan 0.0648148
city iulia 0.3888889
city , 0.0009992
city which 0.0151803
city aarhus 0.0254083
city magistrate 0.0285714
city lulia 0.1666667
city kuttikattoor 0.5000000
city aaarhus 0.1666667
city collage 1.0000000
city university 0.0261952
city ithaca 0.3584906
city univerrsity 0.1666667
city in 0.0320885
city based 0.0063694
city summit 0.0992647
city technology 0.1564103
city kuttikkattoor 0.3513514
city aarus 0.1875000
city b.m.reddy 0.1250000
city bangalore 0.0063898
city vincent 0.0555556
city vincent-st. 0.0217391
1219.0 1219 1.0000000
1219.0 1219.0. 0.1666667
1219.0 the 0.0001040
1219.0 it 0.0027442
1219.0 is 0.0001861
1219.0 of 0.0003345
1219.0 1,219. 0.3333333
1219.0 1219.0 0.5714286
1219.0 1,219 1.0000000
"concert concert 0.5000000
"concert to 0.0006431
"concert various 0.1428571
"concert concerts 0.4857143
618 ( 0.0006583
618 ) 0.0006636
618 in 0.0000683
618 level 0.0079365
618 ft 0.2222222
618 and 0.0000875
618 is 0.0000465
618 of 0.0000669
618 618 0.6250000
northeast that 0.0023585
northeast connections 0.0714286
northeast northeast 0.1880342
northeast positioned 0.4444444
northeast telanga 0.5000000
northeast its 0.0101112
northeast has 0.0040855
northeast telagana 0.2857143
northeast also 0.0011848
northeast which 0.0025300
northeast mols 0.2301587
northeast strong 0.2222222
northeast southwest 0.1752577
northeast telangana 0.3943662
northeast telengana 0.2500000
northeast to 0.0057878
gemstone beintoite 0.3333333
gemstone its 0.0010111
gemstone , 0.0001763
gemstone find 0.1034483
gemstone benitoite 0.2777778
gemstone gemstone 0.1111111
gemstone can 0.0036036
gemstone you 0.0333333
gemstone well 0.0140845
gemstone achievements 0.3333333
gemstone known 0.0026738
gemstone the 0.0000693
gemstone recently 0.5000000
gemstone to 0.0006431
gemstone as 0.0018248
gemstone place 0.0126582
gemstone for 0.0009158
gemstone there 0.0023585
gemstone which 0.0003163
gemstone navy 0.0090909
gemstone shepards 0.3333333
gemstone common 0.1111111
gemstone died 0.0029499
gemstone has 0.0003143
baku martyr 0.0666667
baku with 0.0014717
baku azerbijan 0.2500000
baku baku 0.1086957
baku its 0.0010111
baku the 0.0001040
baku of 0.0020739
baku azerbaijan 0.0576132
baku is 0.0015819
baku azeribaijan 1.0000000
baku turkish 0.0398671
baku for 0.0009158
baku artur 0.0459770
baku if 0.0909091
baku location 0.0217054
icao_location_identifier 's 0.0096870
icao_location_identifier utaa 0.2500000
icao_location_identifier kabi 0.2500000
icao_location_identifier icao 0.9746835
icao_location_identifier has 0.0025141
icao_location_identifier is 0.0000931
icao_location_identifier oraa 0.2647059
icao_location_identifier identifier 0.6320000
icao_location_identifier for 0.0009158
icao_location_identifier location 0.1286822
icao_location_identifier , 0.0001763
icao_location_identifier kacy 0.3333333
icao_location_identifier the 0.0007624
icao_location_identifier viag 0.3069307
icao_location_identifier of 0.0024752
icao_location_identifier sbct 0.2500000
1._fc_magdeburg magdeburgs 1.0000000
1._fc_magdeburg magdeburg 1.0000000
1._fc_magdeburg liga 0.6000000
1._fc_magdeburg manager 0.0027778
1._fc_magdeburg member 0.0017153
1._fc_magdeburg club 0.0014286
1._fc_magdeburg jens 0.0087719
1._fc_magdeburg ! 0.0270270
1._fc_magdeburg 1. 0.0185185
1._fc_magdeburg fc 0.1659664
1._fc_magdeburg is 0.0006048
1._fc_magdeburg 27250 0.1875000
1._fc_magdeburg the 0.0014208
1._fc_magdeburg 1fc 0.3333333
1._fc_magdeburg 1 0.1895161
uttar_pradesh utter 1.0000000
uttar_pradesh state 0.0027933
uttar_pradesh india.uttar 0.5000000
uttar_pradesh in 0.0000683
uttar_pradesh pradesh 1.0000000
uttar_pradesh ( 0.0019750
uttar_pradesh there 0.0023585
uttar_pradesh awadh 0.4000000
uttar_pradesh which 0.0107527
uttar_pradesh uttar 1.0000000
leaderparty leading 0.6428571
leaderparty whose 0.0033557
leaderparty leader 0.0012914
leaderparty is 0.0006979
leaderparty party 0.1111111
leaderparty where 0.0056769
leaderparty the 0.0011089
hilmi hilmi 0.5000000
flowering_plant that 0.0047170
flowering_plant of 0.0027428
flowering_plant division 0.8153846
flowering_plant : 0.0017575
flowering_plant and 0.0026256
flowering_plant group 0.0015385
flowering_plant flowering 1.0000000
flowering_plant the 0.0000347
flowering_plant to 0.0334405
flowering_plant plants 0.5294118
flowering_plant surface 0.0099010
flowering_plant ; 0.0178571
flowering_plant are 0.0008340
flowering_plant belong 0.3333333
flowering_plant plant 0.5344828
ampara_district distract 0.5000000
ampara_district ampara 0.1767068
ampara_district in 0.0015703
ampara_district district 0.2842105
ampara_district of 0.0004683
ampara_district located 0.0038598
ampara_district be 0.0015699
ampara_district an 0.0011905
ampara_district can 0.0018018
walt_disney_studios_motion_pictures disney 1.0000000
walt_disney_studios_motion_pictures picture 0.5000000
walt_disney_studios_motion_pictures studios 0.5384615
walt_disney_studios_motion_pictures motion 1.0000000
walt_disney_studios_motion_pictures pictures 1.0000000
walt_disney_studios_motion_pictures has 0.0003143
walt_disney_studios_motion_pictures and 0.0002626
walt_disney_studios_motion_pictures walt 0.3043478
walt_disney_studios_motion_pictures distributed 0.0833333
rené_goscinny albert 0.0434783
rené_goscinny comics 0.0344828
rené_goscinny frenchman 0.5000000
rené_goscinny a 0.0003109
rené_goscinny goscinny 0.4285714
rené_goscinny are 0.0004170
rené_goscinny creators 0.0200000
rené_goscinny , 0.0006466
rené_goscinny rené 0.9166667
rené_goscinny rene 1.0000000
airports_authority_of_india authority 0.0851064
airports_authority_of_india india.uttar 0.5000000
airports_authority_of_india india 0.0320000
airports_authority_of_india airports 0.8571429
airports_authority_of_india of 0.0018732
airports_authority_of_india ( 0.0006583
airports_authority_of_india ) 0.0006636
creatorofdish dish 0.0017699
vietnamese_people_in_japan vietnamese 0.8500000
vietnamese_people_in_japan are 0.0033361
vietnamese_people_in_japan include 0.0076336
vietnamese_people_in_japan that 0.0023585
vietnamese_people_in_japan people 0.0187394
vietnamese_people_in_japan country 0.0027985
vietnamese_people_in_japan ethnic 0.0096852
vietnamese_people_in_japan japan 0.0163043
vietnamese_people_in_japan as 0.0012165
vietnamese_people_in_japan with 0.0007358
vietnamese_people_in_japan from 0.0009980
vietnamese_people_in_japan an 0.0071429
vietnamese_people_in_japan there 0.0070755
vietnamese_people_in_japan within 0.0093458
vietnamese_people_in_japan has 0.0006285
vietnamese_people_in_japan group 0.0200000
vietnamese_people_in_japan it 0.0005488
vietnamese_people_in_japan called 0.0027778
25.2 ) 0.0006636
25.2 ( 0.0006583
25.2 , 0.0000588
25.2 is 0.0000931
25.2 california 0.0018975
25.2 25.2 0.7500000
rafael_viñoly a 0.0003109
rafael_viñoly headed 0.0833333
rafael_viñoly governed 0.0350877
rafael_viñoly it 0.0005488
rafael_viñoly vinoly 0.2941176
rafael_viñoly to 0.0006431
rafael_viñoly rafael 0.8000000
rafael_viñoly by 0.0010920
rafael_viñoly linked 0.5000000
rafael_viñoly building 0.0084034
rafael_viñoly viñoly 1.0000000
"2/20" the 0.0001040
"2/20" of 0.0002676
"2/20" is 0.0000931
"2/20" long 0.0019569
"2/20" 8m 0.5000000
"2/20" known 0.0026738
"2/20" airport 0.0003772
"2/20" as 0.0006083
"2/20" 2/20 0.4166667
"2/20" runway 0.0014959
los_angeles_herald-examiner herald 0.4705882
los_angeles_herald-examiner landmark 0.3846154
los_angeles_herald-examiner building 0.1344538
los_angeles_herald-examiner california 0.0075901
los_angeles_herald-examiner examiner 0.5483871
los_angeles_herald-examiner a 0.0001555
los_angeles_herald-examiner angeles 0.7727273
los_angeles_herald-examiner los 0.1603774
"1360-0443" 1360-0443 0.7142857
"1360-0443" is:1360-0443 0.5000000
"1360-0443" 1360-0443. 1.0000000
"1360-0443" is 0.0002326
"1360-0443" blackwell 0.1666667
"1360-0443" of 0.0000669
"1360-0443" and 0.0002626
"1360-0443" # 0.0909091
"1360-0443" number 0.0011976
fighter_pilot as 0.0486618
fighter_pilot then 0.0222222
fighter_pilot before 0.1406250
fighter_pilot stint 1.0000000
fighter_pilot 1930-01-20. 0.0555556
fighter_pilot both 0.0086580
fighter_pilot pilor 0.5000000
fighter_pilot once 0.0204082
fighter_pilot prior 0.2000000
fighter_pilot becoming 0.2857143
fighter_pilot also 0.0023697
fighter_pilot earlier 0.5000000
fighter_pilot main 0.0013793
fighter_pilot occupation 0.1111111
fighter_pilot is 0.0000465
fighter_pilot fighter 0.8125000
fighter_pilot his 0.0328947
fighter_pilot joining 0.0666667
fighter_pilot pilot 0.1926782
fighter_pilot life 0.3333333
fighter_pilot who 0.0137457
fighter_pilot well 0.0140845
fighter_pilot test 0.0415335
fighter_pilot time 0.0500000
fighter_pilot a 0.0290734
fighter_pilot and 0.0012253
fighter_pilot 1930.he 0.5000000
fighter_pilot the 0.0000693
fighter_pilot figter 1.0000000
chili, italy.its 1.0000000
chili, chili 0.3235294
ellington,_wisconsin services 0.2142857
ellington,_wisconsin are 0.0004170
ellington,_wisconsin while 0.0312500
ellington,_wisconsin belongs 0.0075758
ellington,_wisconsin where 0.0008734
ellington,_wisconsin and 0.0020130
ellington,_wisconsin little 0.1111111
ellington,_wisconsin environs 1.0000000
ellington,_wisconsin home 0.0034014
ellington,_wisconsin ellington 0.5223881
ellington,_wisconsin ) 0.0026543
ellington,_wisconsin 's 0.0007452
ellington,_wisconsin state 0.0055866
ellington,_wisconsin to 0.0012862
ellington,_wisconsin wisconsin 0.0451613
ellington,_wisconsin it 0.0016465
hiv/aids it 0.0005488
hiv/aids studies 0.8571429
hiv/aids and 0.0013128
hiv/aids studying 1.0000000
hiv/aids to 0.0077170
hiv/aids belongs 0.0909091
hiv/aids predominantly 0.5000000
hiv/aids hiv/aids 0.2764228
hiv/aids , 0.0012931
hiv/aids 's 0.0044709
hiv/aids studiies 1.0000000
hiv/aids hiv 0.0392157
"thomas thomas 0.2975207
"thomas pellesen 1.0000000
"thomas they 0.0029155
"thomas pallesen 0.7500000
"thomas today 0.3333333
location NULL 0.0396040
location pubic 1.0000000
location monument 0.0101010
location amadavad 0.5000000
location plack 0.0059524
location iin 1.0000000
location gujarat 0.0852273
location situated 0.1208791
location public 0.1707989
location copenhagen 0.0093897
location located 0.6680605
location is 0.1186433
location art 0.0410448
location street 0.0080645
location , 0.0343855
location stadium 0.0341880
location north 0.0905923
location and 0.0001750
location madrid-barajas 0.0129870
location of 0.0001338
location fonesca 0.5000000
location ramaphose 0.5000000
location marousi 0.0769231
location locatedd 1.0000000
location international 0.0008666
location actually 0.1250000
location barajas 0.3478261
location ( 0.0039500
location hall 0.0633663
location in 0.1955349
location madrid–barajas 0.0833333
location which 0.0528147
location location 0.1875969
location richardson 0.0175439
location at 0.0047978
location avenue 0.0780488
location bethesda 0.1764706
location various 0.1428571
location deadman 0.5000000
location wellington 0.1428571
location found 0.1031250
location airport 0.0007544
location gujura 0.5000000
location link 0.2500000
location major 0.1250000
location salle 0.1250000
location adare 0.0769231
location rents 1.0000000
department of 0.0001338
department the 0.0005198
department department 0.0613497
department mobility 0.0693069
department flemish 0.0687831
stan_lee stan 1.0000000
stan_lee lee 0.3265306
stan_lee and 0.0010502
stan_lee creators 0.0200000
stan_lee are 0.0004170
stan_lee of 0.0000669
alcobendas madrid- 0.0714286
alcobendas alcobenda 0.6000000
alcobendas madrid–barajasairport 0.2000000
alcobendas is 0.0000465
alcobendas located 0.0003216
alcobendas its 0.0010111
alcobendas ) 0.0006636
alcobendas adolfo 0.0068966
alcobendas found 0.0023437
alcobendas alcobendas 0.7500000
alcobendas barajas 0.4347826
alcobendas madrid 0.0645161
kailan, kailan 1.0000000
kailan, , 0.0014107
kailan, broth 0.5000000
pilot where 0.0008734
pilot and 0.0003501
pilot pilot 0.0693642
pilot his 0.0065789
pilot included 0.1315789
pilot its 0.0050556
pilot was 0.0016810
pilot along 0.1979167
pilot also 0.0035545
pilot backup 0.5180723
pilot alongside 0.1739130
pilot worden 0.2627119
pilot ) 0.0006636
pilot become 0.0263158
pilot had 0.0465116
pilot back 0.4166667
pilot as 0.0024331
pilot with 0.0235467
ketchup it 0.0065862
ketchup this 0.0045455
ketchup ) 0.0019907
ketchup 's 0.0022355
ketchup condiment.the 0.2500000
ketchup have 0.0033113
ketchup condiment 0.0483871
ketchup latter 0.0434783
ketchup well 0.0140845
ketchup home 0.0068027
ketchup turn 0.0909091
ketchup ketchup 0.4337349
ketchup addition 0.1666667
ketchup included 0.0263158
ketchup add 0.5000000
ketchup ingredients 0.0033595
ketchup kethup 0.5000000
ketchup often 0.3333333
ketchup tasty 1.0000000
ketchup sometimes 0.1250000
ketchup bacong 0.1666667
ketchup to 0.0077170
ketchup as 0.0048662
ketchup referred 0.2500000
ketchup contain 0.0294118
ketchup added 0.0487805
ketchup one 0.0058617
ketchup be 0.0156986
ketchup can 0.0270270
ketchup you 0.0333333
ketchup containing 0.0169492
ketchup found 0.0007813
ketchup may 0.1428571
ketchup include 0.0305344
3xn by 0.0010920
3xn found 0.0007813
3xn 3xn 0.4000000
3xn architectural 0.0303030
3xn architects 0.1750000
3xn firm 0.5714286
3xn of 0.0002007
3xn the 0.0004852
3xn it 0.0016465
3xn currently 0.0421053
3xn and 0.0005251
3xn tenanted 0.1875000
3xn be 0.0015699
3xn occupied 0.3333333
3xn can 0.0018018
"05l/23r" called 0.0111111
"05l/23r" at 0.0013708
"05l/23r" names 0.0196078
"05l/23r" lunada 0.2500000
"05l/23r" a 0.0001555
"05l/23r" a.s.l 0.0555556
"05l/23r" 159m 0.2000000
"05l/23r" '' 0.0053667
"05l/23r" 05l/23r 0.5769231
"05l/23r" with 0.0022075
"05l/23r" `` 0.0049342
fullname `` 0.0115132
fullname lambien 0.3584906
fullname s.p.a. 0.0384615
fullname asociacion 0.3888889
fullname ( 0.0078999
fullname ''akron 0.3333333
fullname 's 0.0007452
fullname ) 0.0039814
fullname hazzard 0.4000000
fullname sportiva 0.0206186
fullname amsterdamsche 0.3913043
fullname is 0.0019541
fullname has 0.0006285
fullname jamin 0.3333333
fullname full 0.9120879
fullname 1500. 0.1250000
fullname fullname 0.2830189
fullname zaanstreek 0.2000000
fullname bo 0.3333333
fullname efxeinoupoli 0.0169492
fullname football 0.0395683
fullname calcio 0.0076046
fullname , 0.0001176
fullname associazione 0.4277457
fullname futbol 0.3461538
fullname acf 0.0142857
fullname benjamin 0.1250000
fullname of 0.0022077
fullname the 0.0006238
fullname isidro 0.0123457
fullname name 0.2361878
cornish_language can 0.0054054
cornish_language you 0.0333333
cornish_language spoken 0.0316650
cornish_language be 0.0062794
cornish_language region 0.0126984
cornish_language cornwall 0.4117647
cornish_language of 0.0001338
cornish_language language 0.0291751
cornish_language heard 0.5000000
cornish_language ) 0.0006636
cornish_language sometimes 0.0833333
cornish_language in 0.0002731
cornish_language still 0.7000000
cornish_language parts 0.1538462
cornish_language which 0.0006325
cornish_language languages 0.0877193
cornish_language there 0.0070755
cornish_language some 0.0384615
cornish_language old 1.0000000
cornish_language called 0.0027778
cornish_language cornish 0.3750000
cornish_language is 0.0009771
city_manager manager 0.0138889
city_manager in 0.0000683
city_manager city 0.0028409
city_manager leads 0.0121951
city_manager the 0.0002079
city_manager ann 0.1000000
city_manager title 0.0183486
retrovirus as 0.0012165
retrovirus classed 0.1176471
retrovirus family 0.0320000
retrovirus is 0.0002326
retrovirus of 0.0001338
retrovirus retrovirus 0.6250000
retrovirus retroviruses 1.0000000
retrovirus a 0.0003109
"360" pages 0.0505618
"360" '' 0.0017889
"360" 360 1.0000000
"360" 360-page 0.5000000
"360" long 0.0019569
"360" page 0.0714286
"360" the 0.0000347
alpharetta,_georgia alpharetta 0.9545455
alpharetta,_georgia the 0.0002079
alpharetta,_georgia within 0.0093458
alpharetta,_georgia located 0.0003216
alpharetta,_georgia is 0.0005118
alpharetta,_georgia , 0.0008817
alpharetta,_georgia georgia 0.2333333
alpharetta,_georgia in 0.0002048
20 lifetime 0.5000000
20 ) 0.0006636
20 's 0.0014903
20 number 0.0011976
20 had 0.0465116
20 properties 0.0952381
20 won 0.0689655
20 helmut 0.0869565
20 has 0.0015713
20 career 0.2500000
20 floors 0.0727969
20 awards 0.5813953
20 are 0.0004170
20 credit 0.2500000
20 his 0.0328947
20 during 0.3333333
20 20 0.2643678
20 a 0.0001555
addis_ababa_stadium its 0.0010111
addis_ababa_stadium them 0.3333333
addis_ababa_stadium named 0.0160000
addis_ababa_stadium addis 0.0507812
addis_ababa_stadium ababa 0.0577617
addis_ababa_stadium are 0.0091743
addis_ababa_stadium both 0.0389610
addis_ababa_stadium that 0.0023585
addis_ababa_stadium aabba 1.0000000
addis_ababa_stadium stadium 0.3076923
addis_ababa_stadium addid 0.3333333
addis_ababa_stadium can 0.0054054
addis_ababa_stadium for 0.0009158
addis_ababa_stadium and 0.0026256
addis_ababa_stadium situated 0.0329670
39500.0 is 0.0000465
39500.0 , 0.0001763
39500.0 building 0.0084034
39500.0 39599.0 1.0000000
39500.0 39599 0.6666667
39500.0 metre 0.5000000
chairman ) 0.0006636
chairman chairman 0.6071429
chairman 's 0.0007452
chairman pallotta 0.2400000
chairman milionis 0.5000000
chairman the 0.0002772
chairman laughlin 0.3000000
chairman their 0.0110701
chairman is 0.0007444
debbie_wasserman_schultz is 0.0000465
debbie_wasserman_schultz wasserman 0.5000000
debbie_wasserman_schultz states 0.0004087
debbie_wasserman_schultz united 0.0004228
debbie_wasserman_schultz schultz 0.5000000
debbie_wasserman_schultz debbie 1.0000000
1913 1923 0.0129870
1913 ) 0.0006636
1913 are 0.0004170
1913 in 0.0033454
1913 1913. 0.0909091
1913 made 0.0024876
1913 1913 0.4285714
1913 constructed 0.0125000
1913 and 0.0021005
"metapán, salvador 0.0232558
"metapán, el 0.1190476
"metapán, in 0.0010924
"metapán, are 0.0004170
"metapán, located 0.0028948
"metapán, metapan 0.1323529
"metapán, grounds 0.0059880
andalusia a 0.0007774
andalusia that 0.0094340
andalusia region 0.0412698
andalusia andalusian 0.6666667
andalusia popular 0.0036101
andalusia food 0.0588235
andalusia adalusia 0.5000000
andalusia originated 0.0285714
andalusia the 0.0000693
andalusia its 0.0010111
andalusia who 0.0011455
andalusia found 0.0195312
andalusia , 0.0003527
andalusia blanco 0.0178571
andalusia aldalusian 1.0000000
andalusia andalusia 0.7058824
andalusia ajobkanci 0.5000000
andalusia susana 0.1395349
andalusia in 0.0025944
firstaired garden 0.1973684
firstaired 1983 0.2441860
firstaired 3/10/1983 0.3333333
firstaired between 0.2941176
firstaired bright 0.1449275
firstaired aired 0.7500000
firstaired first 0.3141026
firstaired 10/03/1983 0.2857143
united_kingdom of 0.0001338
united_kingdom the 0.0155248
united_kingdom u.k. 0.4285714
united_kingdom where 0.0135371
united_kingdom country 0.0317164
united_kingdom uk.blt 1.0000000
united_kingdom sandwich 0.0248139
united_kingdom united 0.0710359
united_kingdom uk 0.8429319
united_kingdom kingdom 0.9032258
united_kingdom within 0.0934579
united_kingdom has 0.0009428
united_kingdom bltis 0.2222222
united_kingdom is 0.0001396
united_kingdom u.k 0.5000000
united_kingdom cames 1.0000000
united_kingdom wilkins 0.1864407
united_kingdom also 0.0047393
united_kingdom in 0.0004779
united_kingdom pound 0.2777778
united_kingdom from 0.0006653
united_kingdom sandwiches 0.0153846
united_kingdom elizabeth 0.1041667
united_kingdom cameron 0.2804878
686.0 that 0.0023585
686.0 a 0.0003109
686.0 land 0.0555556
686.0 686 0.3333333
686.0 kilometers 0.0909091
686.0 measures 0.0555556
686.0 686.0 0.4000000
686.0 ) 0.0006636
2439.0 2439m 0.1666667
2439.0 2439.0. 0.5000000
2439.0 well 0.0140845
2439.0 and 0.0001750
2439.0 it 0.0010977
2439.0 of 0.0002676
2439.0 as 0.0012165
2439.0 2,439 0.5000000
2439.0 measures 0.0555556
2439.0 2439.0 1.0000000
2439.0 2439 1.0000000
2439.0 2,349 0.5000000
italian_language national 0.0052910
italian_language surprisingly 0.2500000
italian_language language 0.0754527
italian_language italian 0.5736842
italian_language the 0.0030495
italian_language country 0.0055970
italian_language people 0.0068143
italian_language inhabited 0.0370370
italian_language rome.the 1.0000000
italian_language home 0.0102041
italian_language not 0.1428571
italian_language spoken 0.0469867
italian_language ; 0.0178571
italian_language famous 0.1000000
italian_language speaking 0.0821918
italian_language obviously 0.2000000
italian_language to 0.0019293
italian_language is 0.0030708
italian_language uses 0.0322581
italian_language they 0.0262391
italian_language speak 0.0895522
italian_language there 0.0165094
italian_language for 0.0009158
george_macdonald macdonald 1.0000000
george_macdonald george 0.0806452
